digraph Tree {
node [shape=box, style="filled", color="black", fontname="helvetica"] ;
edge [fontname="helvetica"] ;
0 [label="sulphates <= 0.63\ngini = 0.833\nsamples = 2318\nvalue = [386.0, 391.0, 375.0, 388.0, 387.0, 391.0]", fillcolor="#ffffff"] ;
1 [label="volatile acidity <= 0.74\ngini = 0.758\nsamples = 1172\nvalue = [386.0, 265.0, 271.0, 193.0, 56.0, 1.0]", fillcolor="#fcefe6"] ;
0 -> 1 [labeldistance=2.5, labelangle=45, headlabel="True"] ;
2 [label="alcohol <= 9.198\ngini = 0.766\nsamples = 717\nvalue = [118.0, 145.0, 232.0, 171.0, 50.0, 1.0]", fillcolor="#e9fcf1"] ;
1 -> 2 ;
3 [label="fixed acidity <= 8.507\ngini = 0.34\nsamples = 107\nvalue = [86.0, 7.0, 9.0, 5.0, 0.0, 0.0]", fillcolor="#eb9c63"] ;
2 -> 3 ;
4 [label="residual sugar <= 1.773\ngini = 0.648\nsamples = 18\nvalue = [0, 7, 7, 4, 0, 0]", fillcolor="#ffffff"] ;
3 -> 4 ;
5 [label="gini = 0.0\nsamples = 7\nvalue = [0, 7, 0, 0, 0, 0]", fillcolor="#9de539"] ;
4 -> 5 ;
6 [label="free sulfur dioxide <= 14.5\ngini = 0.463\nsamples = 11\nvalue = [0, 0, 7, 4, 0, 0]", fillcolor="#aaf4c9"] ;
4 -> 6 ;
7 [label="free sulfur dioxide <= 12.0\ngini = 0.444\nsamples = 6\nvalue = [0, 0, 2, 4, 0, 0]", fillcolor="#9ccef2"] ;
6 -> 7 ;
8 [label="gini = 0.0\nsamples = 2\nvalue = [0, 0, 2, 0, 0, 0]", fillcolor="#39e581"] ;
7 -> 8 ;
9 [label="gini = 0.0\nsamples = 4\nvalue = [0, 0, 0, 4, 0, 0]", fillcolor="#399de5"] ;
7 -> 9 ;
10 [label="gini = 0.0\nsamples = 5\nvalue = [0, 0, 5, 0, 0, 0]", fillcolor="#39e581"] ;
6 -> 10 ;
11 [label="chlorides <= 0.212\ngini = 0.066\nsamples = 89\nvalue = [86, 0, 2, 1, 0, 0]", fillcolor="#e68540"] ;
3 -> 11 ;
12 [label="sulphates <= 0.522\ngini = 0.044\nsamples = 88\nvalue = [86, 0, 2, 0, 0, 0]", fillcolor="#e6843e"] ;
11 -> 12 ;
13 [label="gini = 0.0\nsamples = 1\nvalue = [0, 0, 1, 0, 0, 0]", fillcolor="#39e581"] ;
12 -> 13 ;
14 [label="free sulfur dioxide <= 25.347\ngini = 0.023\nsamples = 87\nvalue = [86, 0, 1, 0, 0, 0]", fillcolor="#e5823b"] ;
12 -> 14 ;
15 [label="gini = 0.0\nsamples = 86\nvalue = [86, 0, 0, 0, 0, 0]", fillcolor="#e58139"] ;
14 -> 15 ;
16 [label="gini = 0.0\nsamples = 1\nvalue = [0, 0, 1, 0, 0, 0]", fillcolor="#39e581"] ;
14 -> 16 ;
17 [label="gini = 0.0\nsamples = 1\nvalue = [0, 0, 0, 1, 0, 0]", fillcolor="#399de5"] ;
11 -> 17 ;
18 [label="alcohol <= 10.4\ngini = 0.732\nsamples = 610\nvalue = [32.0, 138.0, 223.0, 166.0, 50.0, 1.0]", fillcolor="#e6fcef"] ;
2 -> 18 ;
19 [label="volatile acidity <= 0.64\ngini = 0.659\nsamples = 363\nvalue = [32, 66, 183, 78, 4, 0]", fillcolor="#b6f5d1"] ;
18 -> 19 ;
20 [label="alcohol <= 9.615\ngini = 0.563\nsamples = 226\nvalue = [0.0, 28.0, 133.0, 62.0, 3.0, 0.0]", fillcolor="#a9f4c8"] ;
19 -> 20 ;
21 [label="sulphates <= 0.535\ngini = 0.423\nsamples = 116\nvalue = [0, 7, 85, 22, 2, 0]", fillcolor="#7aeeab"] ;
20 -> 21 ;
22 [label="Id <= 77.0\ngini = 0.097\nsamples = 39\nvalue = [0, 2, 37, 0, 0, 0]", fillcolor="#44e688"] ;
21 -> 22 ;
23 [label="chlorides <= 0.085\ngini = 0.5\nsamples = 4\nvalue = [0, 2, 2, 0, 0, 0]", fillcolor="#ffffff"] ;
22 -> 23 ;
24 [label="gini = 0.0\nsamples = 2\nvalue = [0, 0, 2, 0, 0, 0]", fillcolor="#39e581"] ;
23 -> 24 ;
25 [label="gini = 0.0\nsamples = 2\nvalue = [0, 2, 0, 0, 0, 0]", fillcolor="#9de539"] ;
23 -> 25 ;
26 [label="gini = 0.0\nsamples = 35\nvalue = [0, 0, 35, 0, 0, 0]", fillcolor="#39e581"] ;
22 -> 26 ;
27 [label="residual sugar <= 2.55\ngini = 0.525\nsamples = 77\nvalue = [0.0, 5.0, 48.0, 22.0, 2.0, 0.0]", fillcolor="#a1f3c3"] ;
21 -> 27 ;
28 [label="citric acid <= 0.255\ngini = 0.575\nsamples = 54\nvalue = [0, 3, 28, 21, 2, 0]", fillcolor="#d5f9e4"] ;
27 -> 28 ;
29 [label="residual sugar <= 1.85\ngini = 0.518\nsamples = 29\nvalue = [0, 2, 19, 6, 2, 0]", fillcolor="#8ff0b8"] ;
28 -> 29 ;
30 [label="gini = 0.0\nsamples = 12\nvalue = [0, 0, 12, 0, 0, 0]", fillcolor="#39e581"] ;
29 -> 30 ;
31 [label="pH <= 3.23\ngini = 0.678\nsamples = 17\nvalue = [0, 2, 7, 6, 2, 0]", fillcolor="#edfdf4"] ;
29 -> 31 ;
32 [label="gini = 0.0\nsamples = 5\nvalue = [0, 0, 5, 0, 0, 0]", fillcolor="#39e581"] ;
31 -> 32 ;
33 [label="alcohol <= 9.421\ngini = 0.667\nsamples = 12\nvalue = [0, 2, 2, 6, 2, 0]", fillcolor="#b0d8f5"] ;
31 -> 33 ;
34 [label="density <= 0.998\ngini = 0.375\nsamples = 8\nvalue = [0, 0, 2, 6, 0, 0]", fillcolor="#7bbeee"] ;
33 -> 34 ;
35 [label="gini = 0.0\nsamples = 6\nvalue = [0, 0, 0, 6, 0, 0]", fillcolor="#399de5"] ;
34 -> 35 ;
36 [label="gini = 0.0\nsamples = 2\nvalue = [0, 0, 2, 0, 0, 0]", fillcolor="#39e581"] ;
34 -> 36 ;
37 [label="alcohol <= 9.483\ngini = 0.5\nsamples = 4\nvalue = [0, 2, 0, 0, 2, 0]", fillcolor="#ffffff"] ;
33 -> 37 ;
38 [label="gini = 0.0\nsamples = 2\nvalue = [0, 2, 0, 0, 0, 0]", fillcolor="#9de539"] ;
37 -> 38 ;
39 [label="gini = 0.0\nsamples = 2\nvalue = [0, 0, 0, 0, 2, 0]", fillcolor="#8139e5"] ;
37 -> 39 ;
40 [label="pH <= 3.31\ngini = 0.509\nsamples = 25\nvalue = [0, 1, 9, 15, 0, 0]", fillcolor="#b5daf5"] ;
28 -> 40 ;
41 [label="free sulfur dioxide <= 8.0\ngini = 0.551\nsamples = 15\nvalue = [0, 1, 8, 6, 0, 0]", fillcolor="#d3f9e3"] ;
40 -> 41 ;
42 [label="Id <= 282.0\ngini = 0.245\nsamples = 7\nvalue = [0, 0, 1, 6, 0, 0]", fillcolor="#5aade9"] ;
41 -> 42 ;
43 [label="gini = 0.0\nsamples = 1\nvalue = [0, 0, 1, 0, 0, 0]", fillcolor="#39e581"] ;
42 -> 43 ;
44 [label="gini = 0.0\nsamples = 6\nvalue = [0, 0, 0, 6, 0, 0]", fillcolor="#399de5"] ;
42 -> 44 ;
45 [label="Id <= 861.5\ngini = 0.219\nsamples = 8\nvalue = [0, 1, 7, 0, 0, 0]", fillcolor="#55e993"] ;
41 -> 45 ;
46 [label="gini = 0.0\nsamples = 7\nvalue = [0, 0, 7, 0, 0, 0]", fillcolor="#39e581"] ;
45 -> 46 ;
47 [label="gini = 0.0\nsamples = 1\nvalue = [0, 1, 0, 0, 0, 0]", fillcolor="#9de539"] ;
45 -> 47 ;
48 [label="fixed acidity <= 9.45\ngini = 0.18\nsamples = 10\nvalue = [0, 0, 1, 9, 0, 0]", fillcolor="#4fa8e8"] ;
40 -> 48 ;
49 [label="gini = 0.0\nsamples = 9\nvalue = [0, 0, 0, 9, 0, 0]", fillcolor="#399de5"] ;
48 -> 49 ;
50 [label="gini = 0.0\nsamples = 1\nvalue = [0, 0, 1, 0, 0, 0]", fillcolor="#39e581"] ;
48 -> 50 ;
51 [label="fixed acidity <= 11.375\ngini = 0.234\nsamples = 23\nvalue = [0, 2, 20, 1, 0, 0]", fillcolor="#55e993"] ;
27 -> 51 ;
52 [label="sulphates <= 0.625\ngini = 0.091\nsamples = 21\nvalue = [0, 0, 20, 1, 0, 0]", fillcolor="#43e687"] ;
51 -> 52 ;
53 [label="gini = 0.0\nsamples = 18\nvalue = [0, 0, 18, 0, 0, 0]", fillcolor="#39e581"] ;
52 -> 53 ;
54 [label="free sulfur dioxide <= 12.0\ngini = 0.444\nsamples = 3\nvalue = [0, 0, 2, 1, 0, 0]", fillcolor="#9cf2c0"] ;
52 -> 54 ;
55 [label="gini = 0.0\nsamples = 2\nvalue = [0, 0, 2, 0, 0, 0]", fillcolor="#39e581"] ;
54 -> 55 ;
56 [label="gini = 0.0\nsamples = 1\nvalue = [0, 0, 0, 1, 0, 0]", fillcolor="#399de5"] ;
54 -> 56 ;
57 [label="gini = 0.0\nsamples = 2\nvalue = [0, 2, 0, 0, 0, 0]", fillcolor="#9de539"] ;
51 -> 57 ;
58 [label="Id <= 1350.0\ngini = 0.641\nsamples = 110\nvalue = [0, 21, 48, 40, 1, 0]", fillcolor="#e8fcf1"] ;
20 -> 58 ;
59 [label="alcohol <= 9.681\ngini = 0.658\nsamples = 89\nvalue = [0, 21, 30, 37, 1, 0]", fillcolor="#e8f3fc"] ;
58 -> 59 ;
60 [label="gini = 0.0\nsamples = 6\nvalue = [0, 6, 0, 0, 0, 0]", fillcolor="#9de539"] ;
59 -> 60 ;
61 [label="fixed acidity <= 11.933\ngini = 0.638\nsamples = 83\nvalue = [0, 15, 30, 37, 1, 0]", fillcolor="#e5f2fc"] ;
59 -> 61 ;
62 [label="pH <= 3.225\ngini = 0.623\nsamples = 80\nvalue = [0, 12, 30, 37, 1, 0]", fillcolor="#e3f1fb"] ;
61 -> 62 ;
63 [label="fixed acidity <= 9.304\ngini = 0.36\nsamples = 17\nvalue = [0, 0, 4, 13, 0, 0]", fillcolor="#76bbed"] ;
62 -> 63 ;
64 [label="gini = 0.0\nsamples = 11\nvalue = [0, 0, 0, 11, 0, 0]", fillcolor="#399de5"] ;
63 -> 64 ;
65 [label="Id <= 521.0\ngini = 0.444\nsamples = 6\nvalue = [0, 0, 4, 2, 0, 0]", fillcolor="#9cf2c0"] ;
63 -> 65 ;
66 [label="gini = 0.0\nsamples = 2\nvalue = [0, 0, 0, 2, 0, 0]", fillcolor="#399de5"] ;
65 -> 66 ;
67 [label="gini = 0.0\nsamples = 4\nvalue = [0, 0, 4, 0, 0, 0]", fillcolor="#39e581"] ;
65 -> 67 ;
68 [label="chlorides <= 0.079\ngini = 0.648\nsamples = 63\nvalue = [0, 12, 26, 24, 1, 0]", fillcolor="#f5fef9"] ;
62 -> 68 ;
69 [label="total sulfur dioxide <= 53.706\ngini = 0.602\nsamples = 34\nvalue = [0, 7, 19, 7, 1, 0]", fillcolor="#a7f3c7"] ;
68 -> 69 ;
70 [label="free sulfur dioxide <= 10.14\ngini = 0.69\nsamples = 22\nvalue = [0, 6, 8, 7, 1, 0]", fillcolor="#f2fdf7"] ;
69 -> 70 ;
71 [label="chlorides <= 0.065\ngini = 0.219\nsamples = 8\nvalue = [0, 0, 7, 1, 0, 0]", fillcolor="#55e993"] ;
70 -> 71 ;
72 [label="gini = 0.0\nsamples = 1\nvalue = [0, 0, 0, 1, 0, 0]", fillcolor="#399de5"] ;
71 -> 72 ;
73 [label="gini = 0.0\nsamples = 7\nvalue = [0, 0, 7, 0, 0, 0]", fillcolor="#39e581"] ;
71 -> 73 ;
74 [label="free sulfur dioxide <= 21.414\ngini = 0.622\nsamples = 14\nvalue = [0, 6, 1, 6, 1, 0]", fillcolor="#ffffff"] ;
70 -> 74 ;
75 [label="Id <= 100.5\ngini = 0.58\nsamples = 10\nvalue = [0, 2, 1, 6, 1, 0]", fillcolor="#9ccef2"] ;
74 -> 75 ;
76 [label="alcohol <= 10.118\ngini = 0.625\nsamples = 4\nvalue = [0, 2, 1, 0, 1, 0]", fillcolor="#def6bd"] ;
75 -> 76 ;
77 [label="density <= 0.996\ngini = 0.5\nsamples = 2\nvalue = [0, 0, 1, 0, 1, 0]", fillcolor="#ffffff"] ;
76 -> 77 ;
78 [label="gini = 0.0\nsamples = 1\nvalue = [0, 0, 0, 0, 1, 0]", fillcolor="#8139e5"] ;
77 -> 78 ;
79 [label="gini = 0.0\nsamples = 1\nvalue = [0, 0, 1, 0, 0, 0]", fillcolor="#39e581"] ;
77 -> 79 ;
80 [label="gini = 0.0\nsamples = 2\nvalue = [0, 2, 0, 0, 0, 0]", fillcolor="#9de539"] ;
76 -> 80 ;
81 [label="gini = 0.0\nsamples = 6\nvalue = [0, 0, 0, 6, 0, 0]", fillcolor="#399de5"] ;
75 -> 81 ;
82 [label="gini = 0.0\nsamples = 4\nvalue = [0, 4, 0, 0, 0, 0]", fillcolor="#9de539"] ;
74 -> 82 ;
83 [label="citric acid <= 0.326\ngini = 0.153\nsamples = 12\nvalue = [0, 1, 11, 0, 0, 0]", fillcolor="#4be78c"] ;
69 -> 83 ;
84 [label="gini = 0.0\nsamples = 11\nvalue = [0, 0, 11, 0, 0, 0]", fillcolor="#39e581"] ;
83 -> 84 ;
85 [label="gini = 0.0\nsamples = 1\nvalue = [0, 1, 0, 0, 0, 0]", fillcolor="#9de539"] ;
83 -> 85 ;
86 [label="chlorides <= 0.084\ngini = 0.568\nsamples = 29\nvalue = [0, 5, 7, 17, 0, 0]", fillcolor="#a5d2f3"] ;
68 -> 86 ;
87 [label="citric acid <= 0.28\ngini = 0.133\nsamples = 14\nvalue = [0, 0, 1, 13, 0, 0]", fillcolor="#48a5e7"] ;
86 -> 87 ;
88 [label="gini = 0.0\nsamples = 13\nvalue = [0, 0, 0, 13, 0, 0]", fillcolor="#399de5"] ;
87 -> 88 ;
89 [label="gini = 0.0\nsamples = 1\nvalue = [0, 0, 1, 0, 0, 0]", fillcolor="#39e581"] ;
87 -> 89 ;
90 [label="total sulfur dioxide <= 53.878\ngini = 0.658\nsamples = 15\nvalue = [0, 5, 6, 4, 0, 0]", fillcolor="#ebfcf2"] ;
86 -> 90 ;
91 [label="Id <= 534.5\ngini = 0.469\nsamples = 8\nvalue = [0, 5, 0, 3, 0, 0]", fillcolor="#d8f5b0"] ;
90 -> 91 ;
92 [label="gini = 0.0\nsamples = 3\nvalue = [0, 0, 0, 3, 0, 0]", fillcolor="#399de5"] ;
91 -> 92 ;
93 [label="gini = 0.0\nsamples = 5\nvalue = [0, 5, 0, 0, 0, 0]", fillcolor="#9de539"] ;
91 -> 93 ;
94 [label="volatile acidity <= 0.3\ngini = 0.245\nsamples = 7\nvalue = [0, 0, 6, 1, 0, 0]", fillcolor="#5ae996"] ;
90 -> 94 ;
95 [label="gini = 0.0\nsamples = 1\nvalue = [0, 0, 0, 1, 0, 0]", fillcolor="#399de5"] ;
94 -> 95 ;
96 [label="gini = 0.0\nsamples = 6\nvalue = [0, 0, 6, 0, 0, 0]", fillcolor="#39e581"] ;
94 -> 96 ;
97 [label="gini = 0.0\nsamples = 3\nvalue = [0, 3, 0, 0, 0, 0]", fillcolor="#9de539"] ;
61 -> 97 ;
98 [label="free sulfur dioxide <= 16.0\ngini = 0.245\nsamples = 21\nvalue = [0, 0, 18, 3, 0, 0]", fillcolor="#5ae996"] ;
58 -> 98 ;
99 [label="free sulfur dioxide <= 7.5\ngini = 0.444\nsamples = 9\nvalue = [0, 0, 6, 3, 0, 0]", fillcolor="#9cf2c0"] ;
98 -> 99 ;
100 [label="gini = 0.0\nsamples = 6\nvalue = [0, 0, 6, 0, 0, 0]", fillcolor="#39e581"] ;
99 -> 100 ;
101 [label="gini = 0.0\nsamples = 3\nvalue = [0, 0, 0, 3, 0, 0]", fillcolor="#399de5"] ;
99 -> 101 ;
102 [label="gini = 0.0\nsamples = 12\nvalue = [0, 0, 12, 0, 0, 0]", fillcolor="#39e581"] ;
98 -> 102 ;
103 [label="citric acid <= 0.326\ngini = 0.722\nsamples = 137\nvalue = [32, 38, 50, 16, 1, 0]", fillcolor="#e7fcf0"] ;
19 -> 103 ;
104 [label="sulphates <= 0.621\ngini = 0.689\nsamples = 114\nvalue = [13, 38, 47, 15, 1, 0]", fillcolor="#e8fcf0"] ;
103 -> 104 ;
105 [label="fixed acidity <= 7.602\ngini = 0.642\nsamples = 101\nvalue = [3, 36, 46, 15, 1, 0]", fillcolor="#e1fbec"] ;
104 -> 105 ;
106 [label="chlorides <= 0.07\ngini = 0.428\nsamples = 38\nvalue = [0, 4, 28, 5, 1, 0]", fillcolor="#75eda7"] ;
105 -> 106 ;
107 [label="sulphates <= 0.47\ngini = 0.625\nsamples = 4\nvalue = [0, 2, 0, 1, 1, 0]", fillcolor="#def6bd"] ;
106 -> 107 ;
108 [label="gini = 0.0\nsamples = 2\nvalue = [0, 2, 0, 0, 0, 0]", fillcolor="#9de539"] ;
107 -> 108 ;
109 [label="free sulfur dioxide <= 28.5\ngini = 0.5\nsamples = 2\nvalue = [0, 0, 0, 1, 1, 0]", fillcolor="#ffffff"] ;
107 -> 109 ;
110 [label="gini = 0.0\nsamples = 1\nvalue = [0, 0, 0, 0, 1, 0]", fillcolor="#8139e5"] ;
109 -> 110 ;
111 [label="gini = 0.0\nsamples = 1\nvalue = [0, 0, 0, 1, 0, 0]", fillcolor="#399de5"] ;
109 -> 111 ;
112 [label="sulphates <= 0.613\ngini = 0.304\nsamples = 34\nvalue = [0, 2, 28, 4, 0, 0]", fillcolor="#61ea9a"] ;
106 -> 112 ;
113 [label="volatile acidity <= 0.644\ngini = 0.179\nsamples = 31\nvalue = [0, 1, 28, 2, 0, 0]", fillcolor="#4de88e"] ;
112 -> 113 ;
114 [label="gini = 0.0\nsamples = 1\nvalue = [0, 1, 0, 0, 0, 0]", fillcolor="#9de539"] ;
113 -> 114 ;
115 [label="total sulfur dioxide <= 11.0\ngini = 0.124\nsamples = 30\nvalue = [0, 0, 28, 2, 0, 0]", fillcolor="#47e78a"] ;
113 -> 115 ;
116 [label="gini = 0.0\nsamples = 1\nvalue = [0, 0, 0, 1, 0, 0]", fillcolor="#399de5"] ;
115 -> 116 ;
117 [label="residual sugar <= 1.65\ngini = 0.067\nsamples = 29\nvalue = [0, 0, 28, 1, 0, 0]", fillcolor="#40e686"] ;
115 -> 117 ;
118 [label="sulphates <= 0.59\ngini = 0.5\nsamples = 2\nvalue = [0, 0, 1, 1, 0, 0]", fillcolor="#ffffff"] ;
117 -> 118 ;
119 [label="gini = 0.0\nsamples = 1\nvalue = [0, 0, 0, 1, 0, 0]", fillcolor="#399de5"] ;
118 -> 119 ;
120 [label="gini = 0.0\nsamples = 1\nvalue = [0, 0, 1, 0, 0, 0]", fillcolor="#39e581"] ;
118 -> 120 ;
121 [label="gini = 0.0\nsamples = 27\nvalue = [0, 0, 27, 0, 0, 0]", fillcolor="#39e581"] ;
117 -> 121 ;
122 [label="alcohol <= 10.232\ngini = 0.444\nsamples = 3\nvalue = [0, 1, 0, 2, 0, 0]", fillcolor="#9ccef2"] ;
112 -> 122 ;
123 [label="gini = 0.0\nsamples = 1\nvalue = [0, 1, 0, 0, 0, 0]", fillcolor="#9de539"] ;
122 -> 123 ;
124 [label="gini = 0.0\nsamples = 2\nvalue = [0, 0, 0, 2, 0, 0]", fillcolor="#399de5"] ;
122 -> 124 ;
125 [label="fixed acidity <= 8.961\ngini = 0.633\nsamples = 63\nvalue = [3, 32, 18, 10, 0, 0]", fillcolor="#e1f7c1"] ;
105 -> 125 ;
126 [label="residual sugar <= 2.019\ngini = 0.564\nsamples = 52\nvalue = [3, 32, 9, 8, 0, 0]", fillcolor="#cbf195"] ;
125 -> 126 ;
127 [label="alcohol <= 9.637\ngini = 0.727\nsamples = 17\nvalue = [3, 3, 6, 5, 0, 0]", fillcolor="#eefdf4"] ;
126 -> 127 ;
128 [label="citric acid <= 0.248\ngini = 0.245\nsamples = 7\nvalue = [1, 0, 6, 0, 0, 0]", fillcolor="#5ae996"] ;
127 -> 128 ;
129 [label="gini = 0.0\nsamples = 6\nvalue = [0, 0, 6, 0, 0, 0]", fillcolor="#39e581"] ;
128 -> 129 ;
130 [label="gini = 0.0\nsamples = 1\nvalue = [1, 0, 0, 0, 0, 0]", fillcolor="#e58139"] ;
128 -> 130 ;
131 [label="alcohol <= 9.783\ngini = 0.62\nsamples = 10\nvalue = [2, 3, 0, 5, 0, 0]", fillcolor="#c6e3f8"] ;
127 -> 131 ;
132 [label="fixed acidity <= 8.299\ngini = 0.5\nsamples = 4\nvalue = [2, 2, 0, 0, 0, 0]", fillcolor="#ffffff"] ;
131 -> 132 ;
133 [label="gini = 0.0\nsamples = 2\nvalue = [2, 0, 0, 0, 0, 0]", fillcolor="#e58139"] ;
132 -> 133 ;
134 [label="gini = 0.0\nsamples = 2\nvalue = [0, 2, 0, 0, 0, 0]", fillcolor="#9de539"] ;
132 -> 134 ;
135 [label="free sulfur dioxide <= 6.207\ngini = 0.278\nsamples = 6\nvalue = [0, 1, 0, 5, 0, 0]", fillcolor="#61b1ea"] ;
131 -> 135 ;
136 [label="free sulfur dioxide <= 4.006\ngini = 0.5\nsamples = 2\nvalue = [0, 1, 0, 1, 0, 0]", fillcolor="#ffffff"] ;
135 -> 136 ;
137 [label="gini = 0.0\nsamples = 1\nvalue = [0, 0, 0, 1, 0, 0]", fillcolor="#399de5"] ;
136 -> 137 ;
138 [label="gini = 0.0\nsamples = 1\nvalue = [0, 1, 0, 0, 0, 0]", fillcolor="#9de539"] ;
136 -> 138 ;
139 [label="gini = 0.0\nsamples = 4\nvalue = [0, 0, 0, 4, 0, 0]", fillcolor="#399de5"] ;
135 -> 139 ;
140 [label="total sulfur dioxide <= 78.0\ngini = 0.299\nsamples = 35\nvalue = [0.0, 29.0, 3.0, 3.0, 0.0, 0.0]", fillcolor="#afea5e"] ;
126 -> 140 ;
141 [label="Id <= 45.5\ngini = 0.123\nsamples = 31\nvalue = [0, 29, 1, 1, 0, 0]", fillcolor="#a4e746"] ;
140 -> 141 ;
142 [label="gini = 0.0\nsamples = 1\nvalue = [0, 0, 0, 1, 0, 0]", fillcolor="#399de5"] ;
141 -> 142 ;
143 [label="density <= 0.998\ngini = 0.064\nsamples = 30\nvalue = [0, 29, 1, 0, 0, 0]", fillcolor="#a0e640"] ;
141 -> 143 ;
144 [label="gini = 0.0\nsamples = 28\nvalue = [0, 28, 0, 0, 0, 0]", fillcolor="#9de539"] ;
143 -> 144 ;
145 [label="chlorides <= 0.087\ngini = 0.5\nsamples = 2\nvalue = [0, 1, 1, 0, 0, 0]", fillcolor="#ffffff"] ;
143 -> 145 ;
146 [label="gini = 0.0\nsamples = 1\nvalue = [0, 1, 0, 0, 0, 0]", fillcolor="#9de539"] ;
145 -> 146 ;
147 [label="gini = 0.0\nsamples = 1\nvalue = [0, 0, 1, 0, 0, 0]", fillcolor="#39e581"] ;
145 -> 147 ;
148 [label="residual sugar <= 2.2\ngini = 0.5\nsamples = 4\nvalue = [0, 0, 2, 2, 0, 0]", fillcolor="#ffffff"] ;
140 -> 148 ;
149 [label="gini = 0.0\nsamples = 2\nvalue = [0, 0, 2, 0, 0, 0]", fillcolor="#39e581"] ;
148 -> 149 ;
150 [label="gini = 0.0\nsamples = 2\nvalue = [0, 0, 0, 2, 0, 0]", fillcolor="#399de5"] ;
148 -> 150 ;
151 [label="pH <= 3.3\ngini = 0.298\nsamples = 11\nvalue = [0, 0, 9, 2, 0, 0]", fillcolor="#65eb9d"] ;
125 -> 151 ;
152 [label="gini = 0.0\nsamples = 9\nvalue = [0, 0, 9, 0, 0, 0]", fillcolor="#39e581"] ;
151 -> 152 ;
153 [label="gini = 0.0\nsamples = 2\nvalue = [0, 0, 0, 2, 0, 0]", fillcolor="#399de5"] ;
151 -> 153 ;
154 [label="residual sugar <= 2.016\ngini = 0.379\nsamples = 13\nvalue = [10, 2, 1, 0, 0, 0]", fillcolor="#eca36f"] ;
104 -> 154 ;
155 [label="gini = 0.0\nsamples = 10\nvalue = [10, 0, 0, 0, 0, 0]", fillcolor="#e58139"] ;
154 -> 155 ;
156 [label="density <= 0.996\ngini = 0.444\nsamples = 3\nvalue = [0, 2, 1, 0, 0, 0]", fillcolor="#cef29c"] ;
154 -> 156 ;
157 [label="gini = 0.0\nsamples = 1\nvalue = [0, 0, 1, 0, 0, 0]", fillcolor="#39e581"] ;
156 -> 157 ;
158 [label="gini = 0.0\nsamples = 2\nvalue = [0, 2, 0, 0, 0, 0]", fillcolor="#9de539"] ;
156 -> 158 ;
159 [label="Id <= 533.5\ngini = 0.299\nsamples = 23\nvalue = [19, 0, 3, 1, 0, 0]", fillcolor="#ea9a61"] ;
103 -> 159 ;
160 [label="sulphates <= 0.445\ngini = 0.375\nsamples = 4\nvalue = [0, 0, 3, 1, 0, 0]", fillcolor="#7beeab"] ;
159 -> 160 ;
161 [label="gini = 0.0\nsamples = 1\nvalue = [0, 0, 0, 1, 0, 0]", fillcolor="#399de5"] ;
160 -> 161 ;
162 [label="gini = 0.0\nsamples = 3\nvalue = [0, 0, 3, 0, 0, 0]", fillcolor="#39e581"] ;
160 -> 162 ;
163 [label="gini = 0.0\nsamples = 19\nvalue = [19, 0, 0, 0, 0, 0]", fillcolor="#e58139"] ;
159 -> 163 ;
164 [label="free sulfur dioxide <= 12.734\ngini = 0.727\nsamples = 247\nvalue = [0, 72, 40, 88, 46, 1]", fillcolor="#edf6fd"] ;
18 -> 164 ;
165 [label="pH <= 3.275\ngini = 0.713\nsamples = 168\nvalue = [0, 68, 24, 40, 36, 0]", fillcolor="#eaf9d4"] ;
164 -> 165 ;
166 [label="alcohol <= 12.025\ngini = 0.618\nsamples = 42\nvalue = [0, 0, 8, 13, 21, 0]", fillcolor="#dcc8f8"] ;
165 -> 166 ;
167 [label="free sulfur dioxide <= 10.321\ngini = 0.659\nsamples = 25\nvalue = [0.0, 0.0, 8.0, 10.0, 7.0, 0.0]", fillcolor="#e8f3fc"] ;
166 -> 167 ;
168 [label="alcohol <= 11.55\ngini = 0.608\nsamples = 21\nvalue = [0, 0, 8, 10, 3, 0]", fillcolor="#e1f0fb"] ;
167 -> 168 ;
169 [label="citric acid <= 0.365\ngini = 0.571\nsamples = 14\nvalue = [0, 0, 8, 4, 2, 0]", fillcolor="#b0f5cd"] ;
168 -> 169 ;
170 [label="volatile acidity <= 0.481\ngini = 0.5\nsamples = 4\nvalue = [0, 0, 0, 2, 2, 0]", fillcolor="#ffffff"] ;
169 -> 170 ;
171 [label="gini = 0.0\nsamples = 2\nvalue = [0, 0, 0, 0, 2, 0]", fillcolor="#8139e5"] ;
170 -> 171 ;
172 [label="gini = 0.0\nsamples = 2\nvalue = [0, 0, 0, 2, 0, 0]", fillcolor="#399de5"] ;
170 -> 172 ;
173 [label="sulphates <= 0.595\ngini = 0.32\nsamples = 10\nvalue = [0, 0, 8, 2, 0, 0]", fillcolor="#6aeca0"] ;
169 -> 173 ;
174 [label="gini = 0.0\nsamples = 7\nvalue = [0, 0, 7, 0, 0, 0]", fillcolor="#39e581"] ;
173 -> 174 ;
175 [label="alcohol <= 11.0\ngini = 0.444\nsamples = 3\nvalue = [0, 0, 1, 2, 0, 0]", fillcolor="#9ccef2"] ;
173 -> 175 ;
176 [label="gini = 0.0\nsamples = 2\nvalue = [0, 0, 0, 2, 0, 0]", fillcolor="#399de5"] ;
175 -> 176 ;
177 [label="gini = 0.0\nsamples = 1\nvalue = [0, 0, 1, 0, 0, 0]", fillcolor="#39e581"] ;
175 -> 177 ;
178 [label="residual sugar <= 5.4\ngini = 0.245\nsamples = 7\nvalue = [0, 0, 0, 6, 1, 0]", fillcolor="#5aade9"] ;
168 -> 178 ;
179 [label="gini = 0.0\nsamples = 6\nvalue = [0, 0, 0, 6, 0, 0]", fillcolor="#399de5"] ;
178 -> 179 ;
180 [label="gini = 0.0\nsamples = 1\nvalue = [0, 0, 0, 0, 1, 0]", fillcolor="#8139e5"] ;
178 -> 180 ;
181 [label="gini = 0.0\nsamples = 4\nvalue = [0, 0, 0, 0, 4, 0]", fillcolor="#8139e5"] ;
167 -> 181 ;
182 [label="total sulfur dioxide <= 9.5\ngini = 0.291\nsamples = 17\nvalue = [0, 0, 0, 3, 14, 0]", fillcolor="#9c63eb"] ;
166 -> 182 ;
183 [label="gini = 0.0\nsamples = 1\nvalue = [0, 0, 0, 1, 0, 0]", fillcolor="#399de5"] ;
182 -> 183 ;
184 [label="alcohol <= 13.1\ngini = 0.219\nsamples = 16\nvalue = [0, 0, 0, 2, 14, 0]", fillcolor="#9355e9"] ;
182 -> 184 ;
185 [label="pH <= 3.18\ngini = 0.124\nsamples = 15\nvalue = [0, 0, 0, 1, 14, 0]", fillcolor="#8a47e7"] ;
184 -> 185 ;
186 [label="gini = 0.0\nsamples = 1\nvalue = [0, 0, 0, 1, 0, 0]", fillcolor="#399de5"] ;
185 -> 186 ;
187 [label="gini = 0.0\nsamples = 14\nvalue = [0, 0, 0, 0, 14, 0]", fillcolor="#8139e5"] ;
185 -> 187 ;
188 [label="gini = 0.0\nsamples = 1\nvalue = [0, 0, 0, 1, 0, 0]", fillcolor="#399de5"] ;
184 -> 188 ;
189 [label="residual sugar <= 1.854\ngini = 0.633\nsamples = 126\nvalue = [0, 68, 16, 27, 15, 0]", fillcolor="#d6f4ad"] ;
165 -> 189 ;
190 [label="residual sugar <= 1.722\ngini = 0.585\nsamples = 20\nvalue = [0, 0, 6, 3, 11, 0]", fillcolor="#d2b8f6"] ;
189 -> 190 ;
191 [label="alcohol <= 12.075\ngini = 0.375\nsamples = 8\nvalue = [0, 0, 6, 2, 0, 0]", fillcolor="#7beeab"] ;
190 -> 191 ;
192 [label="gini = 0.0\nsamples = 6\nvalue = [0, 0, 6, 0, 0, 0]", fillcolor="#39e581"] ;
191 -> 192 ;
193 [label="gini = 0.0\nsamples = 2\nvalue = [0, 0, 0, 2, 0, 0]", fillcolor="#399de5"] ;
191 -> 193 ;
194 [label="chlorides <= 0.053\ngini = 0.153\nsamples = 12\nvalue = [0, 0, 0, 1, 11, 0]", fillcolor="#8c4be7"] ;
190 -> 194 ;
195 [label="gini = 0.0\nsamples = 1\nvalue = [0, 0, 0, 1, 0, 0]", fillcolor="#399de5"] ;
194 -> 195 ;
196 [label="gini = 0.0\nsamples = 11\nvalue = [0, 0, 0, 0, 11, 0]", fillcolor="#8139e5"] ;
194 -> 196 ;
197 [label="sulphates <= 0.6\ngini = 0.527\nsamples = 106\nvalue = [0, 68, 10, 24, 4, 0]", fillcolor="#caf195"] ;
189 -> 197 ;
198 [label="chlorides <= 0.105\ngini = 0.392\nsamples = 85\nvalue = [0, 65, 8, 10, 2, 0]", fillcolor="#b7ec6e"] ;
197 -> 198 ;
199 [label="density <= 0.994\ngini = 0.354\nsamples = 82\nvalue = [0.0, 65.0, 8.0, 7.0, 2.0, 0.0]", fillcolor="#b4eb66"] ;
198 -> 199 ;
200 [label="fixed acidity <= 6.05\ngini = 0.667\nsamples = 6\nvalue = [0, 1, 1, 3, 1, 0]", fillcolor="#b0d8f5"] ;
199 -> 200 ;
201 [label="density <= 0.993\ngini = 0.5\nsamples = 2\nvalue = [0, 1, 1, 0, 0, 0]", fillcolor="#ffffff"] ;
200 -> 201 ;
202 [label="gini = 0.0\nsamples = 1\nvalue = [0, 0, 1, 0, 0, 0]", fillcolor="#39e581"] ;
201 -> 202 ;
203 [label="gini = 0.0\nsamples = 1\nvalue = [0, 1, 0, 0, 0, 0]", fillcolor="#9de539"] ;
201 -> 203 ;
204 [label="alcohol <= 11.55\ngini = 0.375\nsamples = 4\nvalue = [0, 0, 0, 3, 1, 0]", fillcolor="#7bbeee"] ;
200 -> 204 ;
205 [label="gini = 0.0\nsamples = 1\nvalue = [0, 0, 0, 0, 1, 0]", fillcolor="#8139e5"] ;
204 -> 205 ;
206 [label="gini = 0.0\nsamples = 3\nvalue = [0, 0, 0, 3, 0, 0]", fillcolor="#399de5"] ;
204 -> 206 ;
207 [label="sulphates <= 0.486\ngini = 0.279\nsamples = 76\nvalue = [0, 64, 7, 4, 1, 0]", fillcolor="#aeea5b"] ;
199 -> 207 ;
208 [label="gini = 0.0\nsamples = 2\nvalue = [0, 0, 2, 0, 0, 0]", fillcolor="#39e581"] ;
207 -> 208 ;
209 [label="Id <= 1344.5\ngini = 0.244\nsamples = 74\nvalue = [0, 64, 5, 4, 1, 0]", fillcolor="#abe956"] ;
207 -> 209 ;
210 [label="fixed acidity <= 9.125\ngini = 0.188\nsamples = 69\nvalue = [0, 62, 2, 4, 1, 0]", fillcolor="#a8e84e"] ;
209 -> 210 ;
211 [label="citric acid <= 0.092\ngini = 0.166\nsamples = 68\nvalue = [0, 62, 2, 3, 1, 0]", fillcolor="#a6e74b"] ;
210 -> 211 ;
212 [label="volatile acidity <= 0.619\ngini = 0.458\nsamples = 21\nvalue = [0, 15, 2, 3, 1, 0]", fillcolor="#beee7b"] ;
211 -> 212 ;
213 [label="density <= 0.996\ngini = 0.611\nsamples = 6\nvalue = [0, 0, 2, 3, 1, 0]", fillcolor="#cee6f8"] ;
212 -> 213 ;
214 [label="gini = 0.0\nsamples = 3\nvalue = [0, 0, 0, 3, 0, 0]", fillcolor="#399de5"] ;
213 -> 214 ;
215 [label="sulphates <= 0.575\ngini = 0.444\nsamples = 3\nvalue = [0, 0, 2, 0, 1, 0]", fillcolor="#9cf2c0"] ;
213 -> 215 ;
216 [label="gini = 0.0\nsamples = 2\nvalue = [0, 0, 2, 0, 0, 0]", fillcolor="#39e581"] ;
215 -> 216 ;
217 [label="gini = 0.0\nsamples = 1\nvalue = [0, 0, 0, 0, 1, 0]", fillcolor="#8139e5"] ;
215 -> 217 ;
218 [label="gini = 0.0\nsamples = 15\nvalue = [0, 15, 0, 0, 0, 0]", fillcolor="#9de539"] ;
212 -> 218 ;
219 [label="gini = 0.0\nsamples = 47\nvalue = [0, 47, 0, 0, 0, 0]", fillcolor="#9de539"] ;
211 -> 219 ;
220 [label="gini = 0.0\nsamples = 1\nvalue = [0, 0, 0, 1, 0, 0]", fillcolor="#399de5"] ;
210 -> 220 ;
221 [label="residual sugar <= 3.044\ngini = 0.48\nsamples = 5\nvalue = [0, 2, 3, 0, 0, 0]", fillcolor="#bdf6d5"] ;
209 -> 221 ;
222 [label="gini = 0.0\nsamples = 3\nvalue = [0, 0, 3, 0, 0, 0]", fillcolor="#39e581"] ;
221 -> 222 ;
223 [label="gini = 0.0\nsamples = 2\nvalue = [0, 2, 0, 0, 0, 0]", fillcolor="#9de539"] ;
221 -> 223 ;
224 [label="gini = 0.0\nsamples = 3\nvalue = [0, 0, 0, 3, 0, 0]", fillcolor="#399de5"] ;
198 -> 224 ;
225 [label="residual sugar <= 3.35\ngini = 0.517\nsamples = 21\nvalue = [0, 3, 2, 14, 2, 0]", fillcolor="#86c3ef"] ;
197 -> 225 ;
226 [label="alcohol <= 10.68\ngini = 0.364\nsamples = 18\nvalue = [0, 3, 1, 14, 0, 0]", fillcolor="#6eb7ec"] ;
225 -> 226 ;
227 [label="chlorides <= 0.079\ngini = 0.625\nsamples = 4\nvalue = [0, 2, 1, 1, 0, 0]", fillcolor="#def6bd"] ;
226 -> 227 ;
228 [label="gini = 0.0\nsamples = 2\nvalue = [0, 2, 0, 0, 0, 0]", fillcolor="#9de539"] ;
227 -> 228 ;
229 [label="volatile acidity <= 0.495\ngini = 0.5\nsamples = 2\nvalue = [0, 0, 1, 1, 0, 0]", fillcolor="#ffffff"] ;
227 -> 229 ;
230 [label="gini = 0.0\nsamples = 1\nvalue = [0, 0, 1, 0, 0, 0]", fillcolor="#39e581"] ;
229 -> 230 ;
231 [label="gini = 0.0\nsamples = 1\nvalue = [0, 0, 0, 1, 0, 0]", fillcolor="#399de5"] ;
229 -> 231 ;
232 [label="residual sugar <= 2.067\ngini = 0.133\nsamples = 14\nvalue = [0, 1, 0, 13, 0, 0]", fillcolor="#48a5e7"] ;
226 -> 232 ;
233 [label="chlorides <= 0.097\ngini = 0.5\nsamples = 2\nvalue = [0, 1, 0, 1, 0, 0]", fillcolor="#ffffff"] ;
232 -> 233 ;
234 [label="gini = 0.0\nsamples = 1\nvalue = [0, 0, 0, 1, 0, 0]", fillcolor="#399de5"] ;
233 -> 234 ;
235 [label="gini = 0.0\nsamples = 1\nvalue = [0, 1, 0, 0, 0, 0]", fillcolor="#9de539"] ;
233 -> 235 ;
236 [label="gini = 0.0\nsamples = 12\nvalue = [0, 0, 0, 12, 0, 0]", fillcolor="#399de5"] ;
232 -> 236 ;
237 [label="total sulfur dioxide <= 28.511\ngini = 0.444\nsamples = 3\nvalue = [0, 0, 1, 0, 2, 0]", fillcolor="#c09cf2"] ;
225 -> 237 ;
238 [label="gini = 0.0\nsamples = 2\nvalue = [0, 0, 0, 0, 2, 0]", fillcolor="#8139e5"] ;
237 -> 238 ;
239 [label="gini = 0.0\nsamples = 1\nvalue = [0, 0, 1, 0, 0, 0]", fillcolor="#39e581"] ;
237 -> 239 ;
240 [label="volatile acidity <= 0.339\ngini = 0.571\nsamples = 79\nvalue = [0, 4, 16, 48, 10, 1]", fillcolor="#9acdf2"] ;
164 -> 240 ;
241 [label="residual sugar <= 2.15\ngini = 0.531\nsamples = 14\nvalue = [0, 0, 1, 3, 9, 1]", fillcolor="#ba93f1"] ;
240 -> 241 ;
242 [label="alcohol <= 11.85\ngini = 0.667\nsamples = 6\nvalue = [0, 0, 1, 3, 1, 1]", fillcolor="#b0d8f5"] ;
241 -> 242 ;
243 [label="total sulfur dioxide <= 47.0\ngini = 0.667\nsamples = 3\nvalue = [0, 0, 1, 0, 1, 1]", fillcolor="#ffffff"] ;
242 -> 243 ;
244 [label="gini = 0.0\nsamples = 1\nvalue = [0, 0, 0, 0, 1, 0]", fillcolor="#8139e5"] ;
243 -> 244 ;
245 [label="Id <= 772.0\ngini = 0.5\nsamples = 2\nvalue = [0, 0, 1, 0, 0, 1]", fillcolor="#ffffff"] ;
243 -> 245 ;
246 [label="gini = 0.0\nsamples = 1\nvalue = [0, 0, 1, 0, 0, 0]", fillcolor="#39e581"] ;
245 -> 246 ;
247 [label="gini = 0.0\nsamples = 1\nvalue = [0, 0, 0, 0, 0, 1]", fillcolor="#e5399d"] ;
245 -> 247 ;
248 [label="gini = 0.0\nsamples = 3\nvalue = [0, 0, 0, 3, 0, 0]", fillcolor="#399de5"] ;
242 -> 248 ;
249 [label="gini = 0.0\nsamples = 8\nvalue = [0, 0, 0, 0, 8, 0]", fillcolor="#8139e5"] ;
241 -> 249 ;
250 [label="citric acid <= 0.025\ngini = 0.463\nsamples = 65\nvalue = [0, 4, 15, 45, 1, 0]", fillcolor="#88c4ef"] ;
240 -> 250 ;
251 [label="gini = 0.0\nsamples = 17\nvalue = [0, 0, 0, 17, 0, 0]", fillcolor="#399de5"] ;
250 -> 251 ;
252 [label="volatile acidity <= 0.555\ngini = 0.555\nsamples = 48\nvalue = [0, 4, 15, 28, 1, 0]", fillcolor="#b1d8f5"] ;
250 -> 252 ;
253 [label="sulphates <= 0.515\ngini = 0.293\nsamples = 28\nvalue = [0, 0, 5, 23, 0, 0]", fillcolor="#64b2eb"] ;
252 -> 253 ;
254 [label="residual sugar <= 2.25\ngini = 0.444\nsamples = 3\nvalue = [0, 0, 2, 1, 0, 0]", fillcolor="#9cf2c0"] ;
253 -> 254 ;
255 [label="gini = 0.0\nsamples = 1\nvalue = [0, 0, 0, 1, 0, 0]", fillcolor="#399de5"] ;
254 -> 255 ;
256 [label="gini = 0.0\nsamples = 2\nvalue = [0, 0, 2, 0, 0, 0]", fillcolor="#39e581"] ;
254 -> 256 ;
257 [label="total sulfur dioxide <= 95.0\ngini = 0.211\nsamples = 25\nvalue = [0, 0, 3, 22, 0, 0]", fillcolor="#54aae9"] ;
253 -> 257 ;
258 [label="Id <= 1277.5\ngini = 0.153\nsamples = 24\nvalue = [0, 0, 2, 22, 0, 0]", fillcolor="#4ba6e7"] ;
257 -> 258 ;
259 [label="gini = 0.0\nsamples = 17\nvalue = [0, 0, 0, 17, 0, 0]", fillcolor="#399de5"] ;
258 -> 259 ;
260 [label="total sulfur dioxide <= 35.0\ngini = 0.408\nsamples = 7\nvalue = [0, 0, 2, 5, 0, 0]", fillcolor="#88c4ef"] ;
258 -> 260 ;
261 [label="gini = 0.0\nsamples = 5\nvalue = [0, 0, 0, 5, 0, 0]", fillcolor="#399de5"] ;
260 -> 261 ;
262 [label="gini = 0.0\nsamples = 2\nvalue = [0, 0, 2, 0, 0, 0]", fillcolor="#39e581"] ;
260 -> 262 ;
263 [label="gini = 0.0\nsamples = 1\nvalue = [0, 0, 1, 0, 0, 0]", fillcolor="#39e581"] ;
257 -> 263 ;
264 [label="total sulfur dioxide <= 61.057\ngini = 0.645\nsamples = 20\nvalue = [0, 4, 10, 5, 1, 0]", fillcolor="#bdf6d5"] ;
252 -> 264 ;
265 [label="total sulfur dioxide <= 43.0\ngini = 0.561\nsamples = 17\nvalue = [0, 1, 10, 5, 1, 0]", fillcolor="#acf4ca"] ;
264 -> 265 ;
266 [label="alcohol <= 11.8\ngini = 0.64\nsamples = 10\nvalue = [0, 1, 3, 5, 1, 0]", fillcolor="#c6e3f8"] ;
265 -> 266 ;
267 [label="chlorides <= 0.068\ngini = 0.449\nsamples = 7\nvalue = [0, 1, 0, 5, 1, 0]", fillcolor="#7bbeee"] ;
266 -> 267 ;
268 [label="residual sugar <= 4.135\ngini = 0.5\nsamples = 2\nvalue = [0, 1, 0, 0, 1, 0]", fillcolor="#ffffff"] ;
267 -> 268 ;
269 [label="gini = 0.0\nsamples = 1\nvalue = [0, 0, 0, 0, 1, 0]", fillcolor="#8139e5"] ;
268 -> 269 ;
270 [label="gini = 0.0\nsamples = 1\nvalue = [0, 1, 0, 0, 0, 0]", fillcolor="#9de539"] ;
268 -> 270 ;
271 [label="gini = 0.0\nsamples = 5\nvalue = [0, 0, 0, 5, 0, 0]", fillcolor="#399de5"] ;
267 -> 271 ;
272 [label="gini = 0.0\nsamples = 3\nvalue = [0, 0, 3, 0, 0, 0]", fillcolor="#39e581"] ;
266 -> 272 ;
273 [label="gini = 0.0\nsamples = 7\nvalue = [0, 0, 7, 0, 0, 0]", fillcolor="#39e581"] ;
265 -> 273 ;
274 [label="gini = 0.0\nsamples = 3\nvalue = [0, 3, 0, 0, 0, 0]", fillcolor="#9de539"] ;
264 -> 274 ;
275 [label="Id <= 713.0\ngini = 0.574\nsamples = 455\nvalue = [268, 120, 39, 22, 6, 0]", fillcolor="#f4c7a8"] ;
1 -> 275 ;
276 [label="citric acid <= 0.389\ngini = 0.573\nsamples = 102\nvalue = [8.0, 63.0, 18.0, 7.0, 6.0, 0.0]", fillcolor="#caf195"] ;
275 -> 276 ;
277 [label="alcohol <= 11.806\ngini = 0.486\nsamples = 92\nvalue = [0.0, 63.0, 18.0, 5.0, 6.0, 0.0]", fillcolor="#c3ef87"] ;
276 -> 277 ;
278 [label="pH <= 3.301\ngini = 0.404\nsamples = 85\nvalue = [0, 63, 18, 4, 0, 0]", fillcolor="#bdee7a"] ;
277 -> 278 ;
279 [label="total sulfur dioxide <= 32.5\ngini = 0.46\nsamples = 10\nvalue = [0, 1, 7, 2, 0, 0]", fillcolor="#83efb0"] ;
278 -> 279 ;
280 [label="alcohol <= 9.8\ngini = 0.625\nsamples = 4\nvalue = [0, 1, 1, 2, 0, 0]", fillcolor="#bddef6"] ;
279 -> 280 ;
281 [label="Id <= 653.0\ngini = 0.5\nsamples = 2\nvalue = [0, 1, 1, 0, 0, 0]", fillcolor="#ffffff"] ;
280 -> 281 ;
282 [label="gini = 0.0\nsamples = 1\nvalue = [0, 0, 1, 0, 0, 0]", fillcolor="#39e581"] ;
281 -> 282 ;
283 [label="gini = 0.0\nsamples = 1\nvalue = [0, 1, 0, 0, 0, 0]", fillcolor="#9de539"] ;
281 -> 283 ;
284 [label="gini = 0.0\nsamples = 2\nvalue = [0, 0, 0, 2, 0, 0]", fillcolor="#399de5"] ;
280 -> 284 ;
285 [label="gini = 0.0\nsamples = 6\nvalue = [0, 0, 6, 0, 0, 0]", fillcolor="#39e581"] ;
279 -> 285 ;
286 [label="total sulfur dioxide <= 86.0\ngini = 0.294\nsamples = 75\nvalue = [0, 62, 11, 2, 0, 0]", fillcolor="#b1ea61"] ;
278 -> 286 ;
287 [label="citric acid <= 0.005\ngini = 0.245\nsamples = 72\nvalue = [0, 62, 8, 2, 0, 0]", fillcolor="#ace958"] ;
286 -> 287 ;
288 [label="fixed acidity <= 6.9\ngini = 0.444\nsamples = 3\nvalue = [0, 0, 2, 1, 0, 0]", fillcolor="#9cf2c0"] ;
287 -> 288 ;
289 [label="gini = 0.0\nsamples = 1\nvalue = [0, 0, 0, 1, 0, 0]", fillcolor="#399de5"] ;
288 -> 289 ;
290 [label="gini = 0.0\nsamples = 2\nvalue = [0, 0, 2, 0, 0, 0]", fillcolor="#39e581"] ;
288 -> 290 ;
291 [label="Id <= 681.0\ngini = 0.185\nsamples = 69\nvalue = [0, 62, 6, 1, 0, 0]", fillcolor="#a8e84f"] ;
287 -> 291 ;
292 [label="alcohol <= 9.045\ngini = 0.117\nsamples = 65\nvalue = [0, 61, 3, 1, 0, 0]", fillcolor="#a3e746"] ;
291 -> 292 ;
293 [label="gini = 0.0\nsamples = 1\nvalue = [0, 0, 0, 1, 0, 0]", fillcolor="#399de5"] ;
292 -> 293 ;
294 [label="volatile acidity <= 0.754\ngini = 0.089\nsamples = 64\nvalue = [0, 61, 3, 0, 0, 0]", fillcolor="#a2e643"] ;
292 -> 294 ;
295 [label="gini = 0.0\nsamples = 1\nvalue = [0, 0, 1, 0, 0, 0]", fillcolor="#39e581"] ;
294 -> 295 ;
296 [label="total sulfur dioxide <= 10.11\ngini = 0.061\nsamples = 63\nvalue = [0, 61, 2, 0, 0, 0]", fillcolor="#a0e63f"] ;
294 -> 296 ;
297 [label="chlorides <= 0.069\ngini = 0.5\nsamples = 2\nvalue = [0, 1, 1, 0, 0, 0]", fillcolor="#ffffff"] ;
296 -> 297 ;
298 [label="gini = 0.0\nsamples = 1\nvalue = [0, 1, 0, 0, 0, 0]", fillcolor="#9de539"] ;
297 -> 298 ;
299 [label="gini = 0.0\nsamples = 1\nvalue = [0, 0, 1, 0, 0, 0]", fillcolor="#39e581"] ;
297 -> 299 ;
300 [label="citric acid <= 0.198\ngini = 0.032\nsamples = 61\nvalue = [0, 60, 1, 0, 0, 0]", fillcolor="#9fe53c"] ;
296 -> 300 ;
301 [label="gini = 0.0\nsamples = 57\nvalue = [0, 57, 0, 0, 0, 0]", fillcolor="#9de539"] ;
300 -> 301 ;
302 [label="fixed acidity <= 8.215\ngini = 0.375\nsamples = 4\nvalue = [0, 3, 1, 0, 0, 0]", fillcolor="#beee7b"] ;
300 -> 302 ;
303 [label="gini = 0.0\nsamples = 1\nvalue = [0, 0, 1, 0, 0, 0]", fillcolor="#39e581"] ;
302 -> 303 ;
304 [label="gini = 0.0\nsamples = 3\nvalue = [0, 3, 0, 0, 0, 0]", fillcolor="#9de539"] ;
302 -> 304 ;
305 [label="sulphates <= 0.562\ngini = 0.375\nsamples = 4\nvalue = [0, 1, 3, 0, 0, 0]", fillcolor="#7beeab"] ;
291 -> 305 ;
306 [label="gini = 0.0\nsamples = 3\nvalue = [0, 0, 3, 0, 0, 0]", fillcolor="#39e581"] ;
305 -> 306 ;
307 [label="gini = 0.0\nsamples = 1\nvalue = [0, 1, 0, 0, 0, 0]", fillcolor="#9de539"] ;
305 -> 307 ;
308 [label="gini = 0.0\nsamples = 3\nvalue = [0, 0, 3, 0, 0, 0]", fillcolor="#39e581"] ;
286 -> 308 ;
309 [label="chlorides <= 0.072\ngini = 0.245\nsamples = 7\nvalue = [0, 0, 0, 1, 6, 0]", fillcolor="#965ae9"] ;
277 -> 309 ;
310 [label="gini = 0.0\nsamples = 6\nvalue = [0, 0, 0, 0, 6, 0]", fillcolor="#8139e5"] ;
309 -> 310 ;
311 [label="gini = 0.0\nsamples = 1\nvalue = [0, 0, 0, 1, 0, 0]", fillcolor="#399de5"] ;
309 -> 311 ;
312 [label="free sulfur dioxide <= 11.096\ngini = 0.32\nsamples = 10\nvalue = [8, 0, 0, 2, 0, 0]", fillcolor="#eca06a"] ;
276 -> 312 ;
313 [label="gini = 0.0\nsamples = 8\nvalue = [8, 0, 0, 0, 0, 0]", fillcolor="#e58139"] ;
312 -> 313 ;
314 [label="gini = 0.0\nsamples = 2\nvalue = [0, 0, 0, 2, 0, 0]", fillcolor="#399de5"] ;
312 -> 314 ;
315 [label="fixed acidity <= 6.686\ngini = 0.426\nsamples = 353\nvalue = [260, 57, 21, 15, 0, 0]", fillcolor="#eda977"] ;
275 -> 315 ;
316 [label="Id <= 1151.5\ngini = 0.364\nsamples = 41\nvalue = [0, 32, 3, 6, 0, 0]", fillcolor="#b6ec6c"] ;
315 -> 316 ;
317 [label="density <= 0.994\ngini = 0.375\nsamples = 4\nvalue = [0, 0, 1, 3, 0, 0]", fillcolor="#7bbeee"] ;
316 -> 317 ;
318 [label="gini = 0.0\nsamples = 1\nvalue = [0, 0, 1, 0, 0, 0]", fillcolor="#39e581"] ;
317 -> 318 ;
319 [label="gini = 0.0\nsamples = 3\nvalue = [0, 0, 0, 3, 0, 0]", fillcolor="#399de5"] ;
317 -> 319 ;
320 [label="Id <= 1516.0\ngini = 0.243\nsamples = 37\nvalue = [0, 32, 2, 3, 0, 0]", fillcolor="#abe956"] ;
316 -> 320 ;
321 [label="pH <= 3.501\ngini = 0.16\nsamples = 35\nvalue = [0, 32, 1, 2, 0, 0]", fillcolor="#a6e74b"] ;
320 -> 321 ;
322 [label="density <= 0.995\ngini = 0.444\nsamples = 3\nvalue = [0, 1, 0, 2, 0, 0]", fillcolor="#9ccef2"] ;
321 -> 322 ;
323 [label="gini = 0.0\nsamples = 2\nvalue = [0, 0, 0, 2, 0, 0]", fillcolor="#399de5"] ;
322 -> 323 ;
324 [label="gini = 0.0\nsamples = 1\nvalue = [0, 1, 0, 0, 0, 0]", fillcolor="#9de539"] ;
322 -> 324 ;
325 [label="total sulfur dioxide <= 12.5\ngini = 0.061\nsamples = 32\nvalue = [0, 31, 1, 0, 0, 0]", fillcolor="#a0e63f"] ;
321 -> 325 ;
326 [label="gini = 0.0\nsamples = 1\nvalue = [0, 0, 1, 0, 0, 0]", fillcolor="#39e581"] ;
325 -> 326 ;
327 [label="gini = 0.0\nsamples = 31\nvalue = [0, 31, 0, 0, 0, 0]", fillcolor="#9de539"] ;
325 -> 327 ;
328 [label="free sulfur dioxide <= 13.5\ngini = 0.5\nsamples = 2\nvalue = [0, 0, 1, 1, 0, 0]", fillcolor="#ffffff"] ;
320 -> 328 ;
329 [label="gini = 0.0\nsamples = 1\nvalue = [0, 0, 1, 0, 0, 0]", fillcolor="#39e581"] ;
328 -> 329 ;
330 [label="gini = 0.0\nsamples = 1\nvalue = [0, 0, 0, 1, 0, 0]", fillcolor="#399de5"] ;
328 -> 330 ;
331 [label="total sulfur dioxide <= 51.5\ngini = 0.295\nsamples = 312\nvalue = [260.0, 25.0, 18.0, 9.0, 0.0, 0.0]", fillcolor="#ea985d"] ;
315 -> 331 ;
332 [label="citric acid <= 0.0\ngini = 0.255\nsamples = 303\nvalue = [260, 25, 12, 6, 0, 0]", fillcolor="#e99458"] ;
331 -> 332 ;
333 [label="free sulfur dioxide <= 11.114\ngini = 0.7\nsamples = 10\nvalue = [1, 3, 4, 2, 0, 0]", fillcolor="#e3fbed"] ;
332 -> 333 ;
334 [label="pH <= 3.465\ngini = 0.32\nsamples = 5\nvalue = [1, 0, 4, 0, 0, 0]", fillcolor="#6aeca0"] ;
333 -> 334 ;
335 [label="gini = 0.0\nsamples = 4\nvalue = [0, 0, 4, 0, 0, 0]", fillcolor="#39e581"] ;
334 -> 335 ;
336 [label="gini = 0.0\nsamples = 1\nvalue = [1, 0, 0, 0, 0, 0]", fillcolor="#e58139"] ;
334 -> 336 ;
337 [label="free sulfur dioxide <= 16.324\ngini = 0.48\nsamples = 5\nvalue = [0, 3, 0, 2, 0, 0]", fillcolor="#def6bd"] ;
333 -> 337 ;
338 [label="gini = 0.0\nsamples = 3\nvalue = [0, 3, 0, 0, 0, 0]", fillcolor="#9de539"] ;
337 -> 338 ;
339 [label="gini = 0.0\nsamples = 2\nvalue = [0, 0, 0, 2, 0, 0]", fillcolor="#399de5"] ;
337 -> 339 ;
340 [label="alcohol <= 10.95\ngini = 0.212\nsamples = 293\nvalue = [259.0, 22.0, 8.0, 4.0, 0.0, 0.0]", fillcolor="#e89152"] ;
332 -> 340 ;
341 [label="sulphates <= 0.505\ngini = 0.181\nsamples = 287\nvalue = [259, 19, 7, 2, 0, 0]", fillcolor="#e88e4e"] ;
340 -> 341 ;
342 [label="volatile acidity <= 0.988\ngini = 0.401\nsamples = 104\nvalue = [78, 19, 5, 2, 0, 0]", fillcolor="#eda876"] ;
341 -> 342 ;
343 [label="Id <= 1144.0\ngini = 0.351\nsamples = 24\nvalue = [0, 19, 3, 2, 0, 0]", fillcolor="#b4eb68"] ;
342 -> 343 ;
344 [label="chlorides <= 0.084\ngini = 0.48\nsamples = 5\nvalue = [0, 0, 3, 2, 0, 0]", fillcolor="#bdf6d5"] ;
343 -> 344 ;
345 [label="gini = 0.0\nsamples = 2\nvalue = [0, 0, 0, 2, 0, 0]", fillcolor="#399de5"] ;
344 -> 345 ;
346 [label="gini = 0.0\nsamples = 3\nvalue = [0, 0, 3, 0, 0, 0]", fillcolor="#39e581"] ;
344 -> 346 ;
347 [label="gini = 0.0\nsamples = 19\nvalue = [0, 19, 0, 0, 0, 0]", fillcolor="#9de539"] ;
343 -> 347 ;
348 [label="pH <= 3.346\ngini = 0.049\nsamples = 80\nvalue = [78, 0, 2, 0, 0, 0]", fillcolor="#e6843e"] ;
342 -> 348 ;
349 [label="gini = 0.0\nsamples = 2\nvalue = [0, 0, 2, 0, 0, 0]", fillcolor="#39e581"] ;
348 -> 349 ;
350 [label="gini = 0.0\nsamples = 78\nvalue = [78, 0, 0, 0, 0, 0]", fillcolor="#e58139"] ;
348 -> 350 ;
351 [label="pH <= 3.198\ngini = 0.022\nsamples = 183\nvalue = [181, 0, 2, 0, 0, 0]", fillcolor="#e5823b"] ;
341 -> 351 ;
352 [label="gini = 0.0\nsamples = 1\nvalue = [0, 0, 1, 0, 0, 0]", fillcolor="#39e581"] ;
351 -> 352 ;
353 [label="fixed acidity <= 9.455\ngini = 0.011\nsamples = 182\nvalue = [181, 0, 1, 0, 0, 0]", fillcolor="#e5823a"] ;
351 -> 353 ;
354 [label="gini = 0.0\nsamples = 176\nvalue = [176, 0, 0, 0, 0, 0]", fillcolor="#e58139"] ;
353 -> 354 ;
355 [label="citric acid <= 0.311\ngini = 0.278\nsamples = 6\nvalue = [5, 0, 1, 0, 0, 0]", fillcolor="#ea9a61"] ;
353 -> 355 ;
356 [label="gini = 0.0\nsamples = 1\nvalue = [0, 0, 1, 0, 0, 0]", fillcolor="#39e581"] ;
355 -> 356 ;
357 [label="gini = 0.0\nsamples = 5\nvalue = [5, 0, 0, 0, 0, 0]", fillcolor="#e58139"] ;
355 -> 357 ;
358 [label="sulphates <= 0.547\ngini = 0.611\nsamples = 6\nvalue = [0, 3, 1, 2, 0, 0]", fillcolor="#e6f8ce"] ;
340 -> 358 ;
359 [label="volatile acidity <= 0.833\ngini = 0.444\nsamples = 3\nvalue = [0, 0, 1, 2, 0, 0]", fillcolor="#9ccef2"] ;
358 -> 359 ;
360 [label="gini = 0.0\nsamples = 2\nvalue = [0, 0, 0, 2, 0, 0]", fillcolor="#399de5"] ;
359 -> 360 ;
361 [label="gini = 0.0\nsamples = 1\nvalue = [0, 0, 1, 0, 0, 0]", fillcolor="#39e581"] ;
359 -> 361 ;
362 [label="gini = 0.0\nsamples = 3\nvalue = [0, 3, 0, 0, 0, 0]", fillcolor="#9de539"] ;
358 -> 362 ;
363 [label="free sulfur dioxide <= 19.5\ngini = 0.444\nsamples = 9\nvalue = [0, 0, 6, 3, 0, 0]", fillcolor="#9cf2c0"] ;
331 -> 363 ;
364 [label="alcohol <= 9.95\ngini = 0.375\nsamples = 4\nvalue = [0, 0, 1, 3, 0, 0]", fillcolor="#7bbeee"] ;
363 -> 364 ;
365 [label="gini = 0.0\nsamples = 3\nvalue = [0, 0, 0, 3, 0, 0]", fillcolor="#399de5"] ;
364 -> 365 ;
366 [label="gini = 0.0\nsamples = 1\nvalue = [0, 0, 1, 0, 0, 0]", fillcolor="#39e581"] ;
364 -> 366 ;
367 [label="gini = 0.0\nsamples = 5\nvalue = [0, 0, 5, 0, 0, 0]", fillcolor="#39e581"] ;
363 -> 367 ;
368 [label="alcohol <= 10.901\ngini = 0.751\nsamples = 1146\nvalue = [0.0, 126.0, 104.0, 195.0, 331.0, 390.0]", fillcolor="#fdf1f8"] ;
0 -> 368 [labeldistance=2.5, labelangle=-45, headlabel="False"] ;
369 [label="volatile acidity <= 0.371\ngini = 0.788\nsamples = 469\nvalue = [0, 113, 95, 115, 94, 52]", fillcolor="#fefeff"] ;
368 -> 369 ;
370 [label="chlorides <= 0.074\ngini = 0.707\nsamples = 133\nvalue = [0, 0, 12, 33, 38, 50]", fillcolor="#fce6f3"] ;
369 -> 370 ;
371 [label="volatile acidity <= 0.294\ngini = 0.537\nsamples = 75\nvalue = [0, 0, 3, 13, 11, 48]", fillcolor="#f08fc8"] ;
370 -> 371 ;
372 [label="fixed acidity <= 11.288\ngini = 0.462\nsamples = 13\nvalue = [0, 0, 1, 9, 3, 0]", fillcolor="#88c4ef"] ;
371 -> 372 ;
373 [label="pH <= 3.135\ngini = 0.18\nsamples = 10\nvalue = [0, 0, 1, 9, 0, 0]", fillcolor="#4fa8e8"] ;
372 -> 373 ;
374 [label="gini = 0.0\nsamples = 1\nvalue = [0, 0, 1, 0, 0, 0]", fillcolor="#39e581"] ;
373 -> 374 ;
375 [label="gini = 0.0\nsamples = 9\nvalue = [0, 0, 0, 9, 0, 0]", fillcolor="#399de5"] ;
373 -> 375 ;
376 [label="gini = 0.0\nsamples = 3\nvalue = [0, 0, 0, 0, 3, 0]", fillcolor="#8139e5"] ;
372 -> 376 ;
377 [label="free sulfur dioxide <= 12.528\ngini = 0.379\nsamples = 62\nvalue = [0, 0, 2, 4, 8, 48]", fillcolor="#ec6cb6"] ;
371 -> 377 ;
378 [label="residual sugar <= 1.65\ngini = 0.148\nsamples = 51\nvalue = [0, 0, 0, 2, 2, 47]", fillcolor="#e749a5"] ;
377 -> 378 ;
379 [label="residual sugar <= 1.5\ngini = 0.5\nsamples = 2\nvalue = [0, 0, 0, 1, 1, 0]", fillcolor="#ffffff"] ;
378 -> 379 ;
380 [label="gini = 0.0\nsamples = 1\nvalue = [0, 0, 0, 0, 1, 0]", fillcolor="#8139e5"] ;
379 -> 380 ;
381 [label="gini = 0.0\nsamples = 1\nvalue = [0, 0, 0, 1, 0, 0]", fillcolor="#399de5"] ;
379 -> 381 ;
382 [label="alcohol <= 10.882\ngini = 0.079\nsamples = 49\nvalue = [0.0, 0.0, 0.0, 1.0, 1.0, 47.0]", fillcolor="#e641a1"] ;
378 -> 382 ;
383 [label="density <= 0.999\ngini = 0.041\nsamples = 48\nvalue = [0, 0, 0, 1, 0, 47]", fillcolor="#e63d9f"] ;
382 -> 383 ;
384 [label="gini = 0.0\nsamples = 45\nvalue = [0, 0, 0, 0, 0, 45]", fillcolor="#e5399d"] ;
383 -> 384 ;
385 [label="residual sugar <= 2.409\ngini = 0.444\nsamples = 3\nvalue = [0, 0, 0, 1, 0, 2]", fillcolor="#f29cce"] ;
383 -> 385 ;
386 [label="gini = 0.0\nsamples = 2\nvalue = [0, 0, 0, 0, 0, 2]", fillcolor="#e5399d"] ;
385 -> 386 ;
387 [label="gini = 0.0\nsamples = 1\nvalue = [0, 0, 0, 1, 0, 0]", fillcolor="#399de5"] ;
385 -> 387 ;
388 [label="gini = 0.0\nsamples = 1\nvalue = [0, 0, 0, 0, 1, 0]", fillcolor="#8139e5"] ;
382 -> 388 ;
389 [label="total sulfur dioxide <= 45.0\ngini = 0.628\nsamples = 11\nvalue = [0, 0, 2, 2, 6, 1]", fillcolor="#c7a7f3"] ;
377 -> 389 ;
390 [label="sulphates <= 0.871\ngini = 0.245\nsamples = 7\nvalue = [0, 0, 0, 0, 6, 1]", fillcolor="#965ae9"] ;
389 -> 390 ;
391 [label="gini = 0.0\nsamples = 6\nvalue = [0, 0, 0, 0, 6, 0]", fillcolor="#8139e5"] ;
390 -> 391 ;
392 [label="gini = 0.0\nsamples = 1\nvalue = [0, 0, 0, 0, 0, 1]", fillcolor="#e5399d"] ;
390 -> 392 ;
393 [label="pH <= 3.43\ngini = 0.5\nsamples = 4\nvalue = [0, 0, 2, 2, 0, 0]", fillcolor="#ffffff"] ;
389 -> 393 ;
394 [label="gini = 0.0\nsamples = 2\nvalue = [0, 0, 2, 0, 0, 0]", fillcolor="#39e581"] ;
393 -> 394 ;
395 [label="gini = 0.0\nsamples = 2\nvalue = [0, 0, 0, 2, 0, 0]", fillcolor="#399de5"] ;
393 -> 395 ;
396 [label="Id <= 360.5\ngini = 0.639\nsamples = 58\nvalue = [0, 0, 9, 20, 27, 2]", fillcolor="#e8dbfa"] ;
370 -> 396 ;
397 [label="sulphates <= 0.721\ngini = 0.412\nsamples = 27\nvalue = [0, 0, 2, 5, 20, 0]", fillcolor="#a978ed"] ;
396 -> 397 ;
398 [label="residual sugar <= 2.05\ngini = 0.48\nsamples = 5\nvalue = [0, 0, 2, 3, 0, 0]", fillcolor="#bddef6"] ;
397 -> 398 ;
399 [label="gini = 0.0\nsamples = 2\nvalue = [0, 0, 2, 0, 0, 0]", fillcolor="#39e581"] ;
398 -> 399 ;
400 [label="gini = 0.0\nsamples = 3\nvalue = [0, 0, 0, 3, 0, 0]", fillcolor="#399de5"] ;
398 -> 400 ;
401 [label="volatile acidity <= 0.195\ngini = 0.165\nsamples = 22\nvalue = [0, 0, 0, 2, 20, 0]", fillcolor="#8e4de8"] ;
397 -> 401 ;
402 [label="gini = 0.0\nsamples = 1\nvalue = [0, 0, 0, 1, 0, 0]", fillcolor="#399de5"] ;
401 -> 402 ;
403 [label="pH <= 3.055\ngini = 0.091\nsamples = 21\nvalue = [0, 0, 0, 1, 20, 0]", fillcolor="#8743e6"] ;
401 -> 403 ;
404 [label="gini = 0.0\nsamples = 1\nvalue = [0, 0, 0, 1, 0, 0]", fillcolor="#399de5"] ;
403 -> 404 ;
405 [label="gini = 0.0\nsamples = 20\nvalue = [0, 0, 0, 0, 20, 0]", fillcolor="#8139e5"] ;
403 -> 405 ;
406 [label="free sulfur dioxide <= 10.937\ngini = 0.66\nsamples = 31\nvalue = [0, 0, 7, 15, 7, 2]", fillcolor="#bddef6"] ;
396 -> 406 ;
407 [label="density <= 0.998\ngini = 0.715\nsamples = 22\nvalue = [0, 0, 7, 6, 7, 2]", fillcolor="#ffffff"] ;
406 -> 407 ;
408 [label="citric acid <= 0.505\ngini = 0.406\nsamples = 8\nvalue = [0, 0, 1, 0, 6, 1]", fillcolor="#a572ec"] ;
407 -> 408 ;
409 [label="gini = 0.0\nsamples = 6\nvalue = [0, 0, 0, 0, 6, 0]", fillcolor="#8139e5"] ;
408 -> 409 ;
410 [label="free sulfur dioxide <= 7.5\ngini = 0.5\nsamples = 2\nvalue = [0, 0, 1, 0, 0, 1]", fillcolor="#ffffff"] ;
408 -> 410 ;
411 [label="gini = 0.0\nsamples = 1\nvalue = [0, 0, 0, 0, 0, 1]", fillcolor="#e5399d"] ;
410 -> 411 ;
412 [label="gini = 0.0\nsamples = 1\nvalue = [0, 0, 1, 0, 0, 0]", fillcolor="#39e581"] ;
410 -> 412 ;
413 [label="residual sugar <= 2.15\ngini = 0.622\nsamples = 14\nvalue = [0, 0, 6, 6, 1, 1]", fillcolor="#ffffff"] ;
407 -> 413 ;
414 [label="chlorides <= 0.087\ngini = 0.245\nsamples = 7\nvalue = [0, 0, 1, 6, 0, 0]", fillcolor="#5aade9"] ;
413 -> 414 ;
415 [label="gini = 0.0\nsamples = 6\nvalue = [0, 0, 0, 6, 0, 0]", fillcolor="#399de5"] ;
414 -> 415 ;
416 [label="gini = 0.0\nsamples = 1\nvalue = [0, 0, 1, 0, 0, 0]", fillcolor="#39e581"] ;
414 -> 416 ;
417 [label="total sulfur dioxide <= 24.52\ngini = 0.449\nsamples = 7\nvalue = [0, 0, 5, 0, 1, 1]", fillcolor="#7beeab"] ;
413 -> 417 ;
418 [label="gini = 0.0\nsamples = 5\nvalue = [0, 0, 5, 0, 0, 0]", fillcolor="#39e581"] ;
417 -> 418 ;
419 [label="free sulfur dioxide <= 8.178\ngini = 0.5\nsamples = 2\nvalue = [0, 0, 0, 0, 1, 1]", fillcolor="#ffffff"] ;
417 -> 419 ;
420 [label="gini = 0.0\nsamples = 1\nvalue = [0, 0, 0, 0, 0, 1]", fillcolor="#e5399d"] ;
419 -> 420 ;
421 [label="gini = 0.0\nsamples = 1\nvalue = [0, 0, 0, 0, 1, 0]", fillcolor="#8139e5"] ;
419 -> 421 ;
422 [label="gini = 0.0\nsamples = 9\nvalue = [0, 0, 0, 9, 0, 0]", fillcolor="#399de5"] ;
406 -> 422 ;
423 [label="Id <= 203.5\ngini = 0.739\nsamples = 336\nvalue = [0.0, 113.0, 83.0, 82.0, 56.0, 2.0]", fillcolor="#f3fce8"] ;
369 -> 423 ;
424 [label="volatile acidity <= 0.51\ngini = 0.548\nsamples = 105\nvalue = [0, 65, 25, 4, 11, 0]", fillcolor="#cef29c"] ;
423 -> 424 ;
425 [label="total sulfur dioxide <= 30.5\ngini = 0.59\nsamples = 23\nvalue = [0, 0, 12, 3, 8, 0]", fillcolor="#caf8dd"] ;
424 -> 425 ;
426 [label="volatile acidity <= 0.492\ngini = 0.245\nsamples = 7\nvalue = [0, 0, 0, 1, 6, 0]", fillcolor="#965ae9"] ;
425 -> 426 ;
427 [label="gini = 0.0\nsamples = 6\nvalue = [0, 0, 0, 0, 6, 0]", fillcolor="#8139e5"] ;
426 -> 427 ;
428 [label="gini = 0.0\nsamples = 1\nvalue = [0, 0, 0, 1, 0, 0]", fillcolor="#399de5"] ;
426 -> 428 ;
429 [label="total sulfur dioxide <= 132.5\ngini = 0.406\nsamples = 16\nvalue = [0, 0, 12, 2, 2, 0]", fillcolor="#72eca5"] ;
425 -> 429 ;
430 [label="volatile acidity <= 0.381\ngini = 0.245\nsamples = 14\nvalue = [0, 0, 12, 0, 2, 0]", fillcolor="#5ae996"] ;
429 -> 430 ;
431 [label="gini = 0.0\nsamples = 1\nvalue = [0, 0, 0, 0, 1, 0]", fillcolor="#8139e5"] ;
430 -> 431 ;
432 [label="density <= 0.997\ngini = 0.142\nsamples = 13\nvalue = [0, 0, 12, 0, 1, 0]", fillcolor="#49e78c"] ;
430 -> 432 ;
433 [label="total sulfur dioxide <= 54.894\ngini = 0.5\nsamples = 2\nvalue = [0, 0, 1, 0, 1, 0]", fillcolor="#ffffff"] ;
432 -> 433 ;
434 [label="gini = 0.0\nsamples = 1\nvalue = [0, 0, 1, 0, 0, 0]", fillcolor="#39e581"] ;
433 -> 434 ;
435 [label="gini = 0.0\nsamples = 1\nvalue = [0, 0, 0, 0, 1, 0]", fillcolor="#8139e5"] ;
433 -> 435 ;
436 [label="gini = 0.0\nsamples = 11\nvalue = [0, 0, 11, 0, 0, 0]", fillcolor="#39e581"] ;
432 -> 436 ;
437 [label="gini = 0.0\nsamples = 2\nvalue = [0, 0, 0, 2, 0, 0]", fillcolor="#399de5"] ;
429 -> 437 ;
438 [label="Id <= 47.5\ngini = 0.345\nsamples = 82\nvalue = [0, 65, 13, 1, 3, 0]", fillcolor="#b5eb6a"] ;
424 -> 438 ;
439 [label="gini = 0.0\nsamples = 6\nvalue = [0, 0, 6, 0, 0, 0]", fillcolor="#39e581"] ;
438 -> 439 ;
440 [label="free sulfur dioxide <= 5.601\ngini = 0.258\nsamples = 76\nvalue = [0, 65, 7, 1, 3, 0]", fillcolor="#ade959"] ;
438 -> 440 ;
441 [label="chlorides <= 0.071\ngini = 0.375\nsamples = 4\nvalue = [0, 0, 1, 0, 3, 0]", fillcolor="#ab7bee"] ;
440 -> 441 ;
442 [label="gini = 0.0\nsamples = 3\nvalue = [0, 0, 0, 0, 3, 0]", fillcolor="#8139e5"] ;
441 -> 442 ;
443 [label="gini = 0.0\nsamples = 1\nvalue = [0, 0, 1, 0, 0, 0]", fillcolor="#39e581"] ;
441 -> 443 ;
444 [label="sulphates <= 0.666\ngini = 0.178\nsamples = 72\nvalue = [0, 65, 6, 1, 0, 0]", fillcolor="#a7e84e"] ;
440 -> 444 ;
445 [label="fixed acidity <= 8.543\ngini = 0.444\nsamples = 3\nvalue = [0, 1, 2, 0, 0, 0]", fillcolor="#9cf2c0"] ;
444 -> 445 ;
446 [label="gini = 0.0\nsamples = 2\nvalue = [0, 0, 2, 0, 0, 0]", fillcolor="#39e581"] ;
445 -> 446 ;
447 [label="gini = 0.0\nsamples = 1\nvalue = [0, 1, 0, 0, 0, 0]", fillcolor="#9de539"] ;
445 -> 447 ;
448 [label="sulphates <= 1.02\ngini = 0.136\nsamples = 69\nvalue = [0, 64, 4, 1, 0, 0]", fillcolor="#a5e748"] ;
444 -> 448 ;
449 [label="pH <= 3.191\ngini = 0.279\nsamples = 31\nvalue = [0, 26, 4, 1, 0, 0]", fillcolor="#afea5e"] ;
448 -> 449 ;
450 [label="alcohol <= 9.226\ngini = 0.48\nsamples = 5\nvalue = [0, 2, 3, 0, 0, 0]", fillcolor="#bdf6d5"] ;
449 -> 450 ;
451 [label="gini = 0.0\nsamples = 2\nvalue = [0, 2, 0, 0, 0, 0]", fillcolor="#9de539"] ;
450 -> 451 ;
452 [label="gini = 0.0\nsamples = 3\nvalue = [0, 0, 3, 0, 0, 0]", fillcolor="#39e581"] ;
450 -> 452 ;
453 [label="pH <= 3.334\ngini = 0.145\nsamples = 26\nvalue = [0, 24, 1, 1, 0, 0]", fillcolor="#a5e749"] ;
449 -> 453 ;
454 [label="gini = 0.0\nsamples = 21\nvalue = [0, 21, 0, 0, 0, 0]", fillcolor="#9de539"] ;
453 -> 454 ;
455 [label="total sulfur dioxide <= 73.344\ngini = 0.56\nsamples = 5\nvalue = [0, 3, 1, 1, 0, 0]", fillcolor="#cef29c"] ;
453 -> 455 ;
456 [label="free sulfur dioxide <= 11.5\ngini = 0.5\nsamples = 2\nvalue = [0, 0, 1, 1, 0, 0]", fillcolor="#ffffff"] ;
455 -> 456 ;
457 [label="gini = 0.0\nsamples = 1\nvalue = [0, 0, 0, 1, 0, 0]", fillcolor="#399de5"] ;
456 -> 457 ;
458 [label="gini = 0.0\nsamples = 1\nvalue = [0, 0, 1, 0, 0, 0]", fillcolor="#39e581"] ;
456 -> 458 ;
459 [label="gini = 0.0\nsamples = 3\nvalue = [0, 3, 0, 0, 0, 0]", fillcolor="#9de539"] ;
455 -> 459 ;
460 [label="gini = 0.0\nsamples = 38\nvalue = [0, 38, 0, 0, 0, 0]", fillcolor="#9de539"] ;
448 -> 460 ;
461 [label="alcohol <= 9.804\ngini = 0.742\nsamples = 231\nvalue = [0, 48, 58, 78, 45, 2]", fillcolor="#e8f4fc"] ;
423 -> 461 ;
462 [label="free sulfur dioxide <= 16.527\ngini = 0.628\nsamples = 90\nvalue = [0, 16, 40, 34, 0, 0]", fillcolor="#eafcf2"] ;
461 -> 462 ;
463 [label="sulphates <= 1.075\ngini = 0.517\nsamples = 52\nvalue = [0.0, 1.0, 24.0, 27.0, 0.0, 0.0]", fillcolor="#eaf4fc"] ;
462 -> 463 ;
464 [label="fixed acidity <= 6.8\ngini = 0.502\nsamples = 46\nvalue = [0.0, 1.0, 18.0, 27.0, 0.0, 0.0]", fillcolor="#bfe0f7"] ;
463 -> 464 ;
465 [label="gini = 0.0\nsamples = 6\nvalue = [0, 0, 6, 0, 0, 0]", fillcolor="#39e581"] ;
464 -> 465 ;
466 [label="volatile acidity <= 0.572\ngini = 0.454\nsamples = 40\nvalue = [0, 1, 12, 27, 0, 0]", fillcolor="#95caf1"] ;
464 -> 466 ;
467 [label="volatile acidity <= 0.385\ngini = 0.227\nsamples = 23\nvalue = [0, 0, 3, 20, 0, 0]", fillcolor="#57ace9"] ;
466 -> 467 ;
468 [label="gini = 0.0\nsamples = 1\nvalue = [0, 0, 1, 0, 0, 0]", fillcolor="#39e581"] ;
467 -> 468 ;
469 [label="sulphates <= 0.68\ngini = 0.165\nsamples = 22\nvalue = [0, 0, 2, 20, 0, 0]", fillcolor="#4da7e8"] ;
467 -> 469 ;
470 [label="citric acid <= 0.28\ngini = 0.408\nsamples = 7\nvalue = [0, 0, 2, 5, 0, 0]", fillcolor="#88c4ef"] ;
469 -> 470 ;
471 [label="gini = 0.0\nsamples = 5\nvalue = [0, 0, 0, 5, 0, 0]", fillcolor="#399de5"] ;
470 -> 471 ;
472 [label="gini = 0.0\nsamples = 2\nvalue = [0, 0, 2, 0, 0, 0]", fillcolor="#39e581"] ;
470 -> 472 ;
473 [label="gini = 0.0\nsamples = 15\nvalue = [0, 0, 0, 15, 0, 0]", fillcolor="#399de5"] ;
469 -> 473 ;
474 [label="fixed acidity <= 7.05\ngini = 0.547\nsamples = 17\nvalue = [0, 1, 9, 7, 0, 0]", fillcolor="#d7fae6"] ;
466 -> 474 ;
475 [label="gini = 0.0\nsamples = 4\nvalue = [0, 0, 0, 4, 0, 0]", fillcolor="#399de5"] ;
474 -> 475 ;
476 [label="Id <= 256.5\ngini = 0.462\nsamples = 13\nvalue = [0, 1, 9, 3, 0, 0]", fillcolor="#88efb3"] ;
474 -> 476 ;
477 [label="Id <= 215.0\ngini = 0.5\nsamples = 2\nvalue = [0, 1, 0, 1, 0, 0]", fillcolor="#ffffff"] ;
476 -> 477 ;
478 [label="gini = 0.0\nsamples = 1\nvalue = [0, 0, 0, 1, 0, 0]", fillcolor="#399de5"] ;
477 -> 478 ;
479 [label="gini = 0.0\nsamples = 1\nvalue = [0, 1, 0, 0, 0, 0]", fillcolor="#9de539"] ;
477 -> 479 ;
480 [label="total sulfur dioxide <= 16.0\ngini = 0.298\nsamples = 11\nvalue = [0, 0, 9, 2, 0, 0]", fillcolor="#65eb9d"] ;
476 -> 480 ;
481 [label="total sulfur dioxide <= 11.5\ngini = 0.444\nsamples = 3\nvalue = [0, 0, 1, 2, 0, 0]", fillcolor="#9ccef2"] ;
480 -> 481 ;
482 [label="gini = 0.0\nsamples = 1\nvalue = [0, 0, 1, 0, 0, 0]", fillcolor="#39e581"] ;
481 -> 482 ;
483 [label="gini = 0.0\nsamples = 2\nvalue = [0, 0, 0, 2, 0, 0]", fillcolor="#399de5"] ;
481 -> 483 ;
484 [label="gini = 0.0\nsamples = 8\nvalue = [0, 0, 8, 0, 0, 0]", fillcolor="#39e581"] ;
480 -> 484 ;
485 [label="gini = 0.0\nsamples = 6\nvalue = [0, 0, 6, 0, 0, 0]", fillcolor="#39e581"] ;
463 -> 485 ;
486 [label="alcohol <= 9.515\ngini = 0.633\nsamples = 38\nvalue = [0, 15, 16, 7, 0, 0]", fillcolor="#f6fefa"] ;
462 -> 486 ;
487 [label="residual sugar <= 2.077\ngini = 0.568\nsamples = 18\nvalue = [0, 2, 10, 6, 0, 0]", fillcolor="#bdf6d5"] ;
486 -> 487 ;
488 [label="fixed acidity <= 9.137\ngini = 0.571\nsamples = 7\nvalue = [0, 2, 1, 4, 0, 0]", fillcolor="#b0d8f5"] ;
487 -> 488 ;
489 [label="density <= 0.996\ngini = 0.32\nsamples = 5\nvalue = [0, 0, 1, 4, 0, 0]", fillcolor="#6ab6ec"] ;
488 -> 489 ;
490 [label="gini = 0.0\nsamples = 1\nvalue = [0, 0, 1, 0, 0, 0]", fillcolor="#39e581"] ;
489 -> 490 ;
491 [label="gini = 0.0\nsamples = 4\nvalue = [0, 0, 0, 4, 0, 0]", fillcolor="#399de5"] ;
489 -> 491 ;
492 [label="gini = 0.0\nsamples = 2\nvalue = [0, 2, 0, 0, 0, 0]", fillcolor="#9de539"] ;
488 -> 492 ;
493 [label="residual sugar <= 14.6\ngini = 0.298\nsamples = 11\nvalue = [0, 0, 9, 2, 0, 0]", fillcolor="#65eb9d"] ;
487 -> 493 ;
494 [label="citric acid <= 0.14\ngini = 0.18\nsamples = 10\nvalue = [0, 0, 9, 1, 0, 0]", fillcolor="#4fe88f"] ;
493 -> 494 ;
495 [label="gini = 0.0\nsamples = 1\nvalue = [0, 0, 0, 1, 0, 0]", fillcolor="#399de5"] ;
494 -> 495 ;
496 [label="gini = 0.0\nsamples = 9\nvalue = [0, 0, 9, 0, 0, 0]", fillcolor="#39e581"] ;
494 -> 496 ;
497 [label="gini = 0.0\nsamples = 1\nvalue = [0, 0, 0, 1, 0, 0]", fillcolor="#399de5"] ;
493 -> 497 ;
498 [label="free sulfur dioxide <= 29.0\ngini = 0.485\nsamples = 20\nvalue = [0, 13, 6, 1, 0, 0]", fillcolor="#cef29c"] ;
486 -> 498 ;
499 [label="total sulfur dioxide <= 48.221\ngini = 0.381\nsamples = 17\nvalue = [0, 13, 3, 1, 0, 0]", fillcolor="#b9ec72"] ;
498 -> 499 ;
500 [label="sulphates <= 0.66\ngini = 0.444\nsamples = 3\nvalue = [0, 0, 2, 1, 0, 0]", fillcolor="#9cf2c0"] ;
499 -> 500 ;
501 [label="gini = 0.0\nsamples = 1\nvalue = [0, 0, 0, 1, 0, 0]", fillcolor="#399de5"] ;
500 -> 501 ;
502 [label="gini = 0.0\nsamples = 2\nvalue = [0, 0, 2, 0, 0, 0]", fillcolor="#39e581"] ;
500 -> 502 ;
503 [label="chlorides <= 0.123\ngini = 0.133\nsamples = 14\nvalue = [0, 13, 1, 0, 0, 0]", fillcolor="#a5e748"] ;
499 -> 503 ;
504 [label="gini = 0.0\nsamples = 13\nvalue = [0, 13, 0, 0, 0, 0]", fillcolor="#9de539"] ;
503 -> 504 ;
505 [label="gini = 0.0\nsamples = 1\nvalue = [0, 0, 1, 0, 0, 0]", fillcolor="#39e581"] ;
503 -> 505 ;
506 [label="gini = 0.0\nsamples = 3\nvalue = [0, 0, 3, 0, 0, 0]", fillcolor="#39e581"] ;
498 -> 506 ;
507 [label="chlorides <= 0.095\ngini = 0.733\nsamples = 141\nvalue = [0, 32, 18, 44, 45, 2]", fillcolor="#fefdff"] ;
461 -> 507 ;
508 [label="total sulfur dioxide <= 54.776\ngini = 0.697\nsamples = 114\nvalue = [0, 12, 16, 42, 42, 2]", fillcolor="#ffffff"] ;
507 -> 508 ;
509 [label="total sulfur dioxide <= 32.113\ngini = 0.631\nsamples = 94\nvalue = [0, 2, 11, 37, 42, 2]", fillcolor="#f4eefd"] ;
508 -> 509 ;
510 [label="Id <= 1548.0\ngini = 0.527\nsamples = 32\nvalue = [0, 1, 5, 21, 4, 1]", fillcolor="#8ac5f0"] ;
509 -> 510 ;
511 [label="fixed acidity <= 6.337\ngini = 0.442\nsamples = 29\nvalue = [0, 1, 5, 21, 1, 1]", fillcolor="#7bbeee"] ;
510 -> 511 ;
512 [label="volatile acidity <= 0.52\ngini = 0.667\nsamples = 3\nvalue = [0, 1, 1, 0, 1, 0]", fillcolor="#ffffff"] ;
511 -> 512 ;
513 [label="gini = 0.0\nsamples = 1\nvalue = [0, 0, 0, 0, 1, 0]", fillcolor="#8139e5"] ;
512 -> 513 ;
514 [label="residual sugar <= 2.337\ngini = 0.5\nsamples = 2\nvalue = [0, 1, 1, 0, 0, 0]", fillcolor="#ffffff"] ;
512 -> 514 ;
515 [label="gini = 0.0\nsamples = 1\nvalue = [0, 0, 1, 0, 0, 0]", fillcolor="#39e581"] ;
514 -> 515 ;
516 [label="gini = 0.0\nsamples = 1\nvalue = [0, 1, 0, 0, 0, 0]", fillcolor="#9de539"] ;
514 -> 516 ;
517 [label="pH <= 3.03\ngini = 0.322\nsamples = 26\nvalue = [0, 0, 4, 21, 0, 1]", fillcolor="#66b3eb"] ;
511 -> 517 ;
518 [label="chlorides <= 0.073\ngini = 0.5\nsamples = 2\nvalue = [0, 0, 1, 0, 0, 1]", fillcolor="#ffffff"] ;
517 -> 518 ;
519 [label="gini = 0.0\nsamples = 1\nvalue = [0, 0, 1, 0, 0, 0]", fillcolor="#39e581"] ;
518 -> 519 ;
520 [label="gini = 0.0\nsamples = 1\nvalue = [0, 0, 0, 0, 0, 1]", fillcolor="#e5399d"] ;
518 -> 520 ;
521 [label="pH <= 3.65\ngini = 0.219\nsamples = 24\nvalue = [0, 0, 3, 21, 0, 0]", fillcolor="#55abe9"] ;
517 -> 521 ;
522 [label="volatile acidity <= 0.718\ngini = 0.159\nsamples = 23\nvalue = [0, 0, 2, 21, 0, 0]", fillcolor="#4ca6e7"] ;
521 -> 522 ;
523 [label="gini = 0.0\nsamples = 18\nvalue = [0, 0, 0, 18, 0, 0]", fillcolor="#399de5"] ;
522 -> 523 ;
524 [label="citric acid <= 0.13\ngini = 0.48\nsamples = 5\nvalue = [0, 0, 2, 3, 0, 0]", fillcolor="#bddef6"] ;
522 -> 524 ;
525 [label="gini = 0.0\nsamples = 3\nvalue = [0, 0, 0, 3, 0, 0]", fillcolor="#399de5"] ;
524 -> 525 ;
526 [label="gini = 0.0\nsamples = 2\nvalue = [0, 0, 2, 0, 0, 0]", fillcolor="#39e581"] ;
524 -> 526 ;
527 [label="gini = 0.0\nsamples = 1\nvalue = [0, 0, 1, 0, 0, 0]", fillcolor="#39e581"] ;
521 -> 527 ;
528 [label="gini = 0.0\nsamples = 3\nvalue = [0, 0, 0, 0, 3, 0]", fillcolor="#8139e5"] ;
510 -> 528 ;
529 [label="fixed acidity <= 7.25\ngini = 0.548\nsamples = 62\nvalue = [0, 1, 6, 16, 38, 1]", fillcolor="#c3a0f3"] ;
509 -> 529 ;
530 [label="volatile acidity <= 0.62\ngini = 0.625\nsamples = 12\nvalue = [0, 1, 4, 6, 1, 0]", fillcolor="#cee6f8"] ;
529 -> 530 ;
531 [label="citric acid <= 0.337\ngini = 0.519\nsamples = 9\nvalue = [0, 1, 1, 6, 1, 0]", fillcolor="#83c2ef"] ;
530 -> 531 ;
532 [label="pH <= 3.344\ngini = 0.406\nsamples = 8\nvalue = [0, 0, 1, 6, 1, 0]", fillcolor="#72b9ec"] ;
531 -> 532 ;
533 [label="gini = 0.0\nsamples = 1\nvalue = [0, 0, 0, 0, 1, 0]", fillcolor="#8139e5"] ;
532 -> 533 ;
534 [label="chlorides <= 0.08\ngini = 0.245\nsamples = 7\nvalue = [0, 0, 1, 6, 0, 0]", fillcolor="#5aade9"] ;
532 -> 534 ;
535 [label="gini = 0.0\nsamples = 5\nvalue = [0, 0, 0, 5, 0, 0]", fillcolor="#399de5"] ;
534 -> 535 ;
536 [label="volatile acidity <= 0.42\ngini = 0.5\nsamples = 2\nvalue = [0, 0, 1, 1, 0, 0]", fillcolor="#ffffff"] ;
534 -> 536 ;
537 [label="gini = 0.0\nsamples = 1\nvalue = [0, 0, 0, 1, 0, 0]", fillcolor="#399de5"] ;
536 -> 537 ;
538 [label="gini = 0.0\nsamples = 1\nvalue = [0, 0, 1, 0, 0, 0]", fillcolor="#39e581"] ;
536 -> 538 ;
539 [label="gini = 0.0\nsamples = 1\nvalue = [0, 1, 0, 0, 0, 0]", fillcolor="#9de539"] ;
531 -> 539 ;
540 [label="gini = 0.0\nsamples = 3\nvalue = [0, 0, 3, 0, 0, 0]", fillcolor="#39e581"] ;
530 -> 540 ;
541 [label="alcohol <= 10.4\ngini = 0.41\nsamples = 50\nvalue = [0, 0, 2, 10, 37, 1]", fillcolor="#aa79ed"] ;
529 -> 541 ;
542 [label="citric acid <= 0.314\ngini = 0.476\nsamples = 23\nvalue = [0, 0, 0, 9, 14, 0]", fillcolor="#d2b8f6"] ;
541 -> 542 ;
543 [label="gini = 0.0\nsamples = 7\nvalue = [0, 0, 0, 7, 0, 0]", fillcolor="#399de5"] ;
542 -> 543 ;
544 [label="Id <= 323.5\ngini = 0.219\nsamples = 16\nvalue = [0, 0, 0, 2, 14, 0]", fillcolor="#9355e9"] ;
542 -> 544 ;
545 [label="gini = 0.0\nsamples = 1\nvalue = [0, 0, 0, 1, 0, 0]", fillcolor="#399de5"] ;
544 -> 545 ;
546 [label="sulphates <= 0.841\ngini = 0.124\nsamples = 15\nvalue = [0, 0, 0, 1, 14, 0]", fillcolor="#8a47e7"] ;
544 -> 546 ;
547 [label="gini = 0.0\nsamples = 14\nvalue = [0, 0, 0, 0, 14, 0]", fillcolor="#8139e5"] ;
546 -> 547 ;
548 [label="gini = 0.0\nsamples = 1\nvalue = [0, 0, 0, 1, 0, 0]", fillcolor="#399de5"] ;
546 -> 548 ;
549 [label="Id <= 1158.0\ngini = 0.266\nsamples = 27\nvalue = [0, 0, 2, 1, 23, 1]", fillcolor="#9559e9"] ;
541 -> 549 ;
550 [label="free sulfur dioxide <= 8.747\ngini = 0.08\nsamples = 24\nvalue = [0, 0, 0, 0, 23, 1]", fillcolor="#8642e6"] ;
549 -> 550 ;
551 [label="gini = 0.0\nsamples = 1\nvalue = [0, 0, 0, 0, 0, 1]", fillcolor="#e5399d"] ;
550 -> 551 ;
552 [label="gini = 0.0\nsamples = 23\nvalue = [0, 0, 0, 0, 23, 0]", fillcolor="#8139e5"] ;
550 -> 552 ;
553 [label="free sulfur dioxide <= 22.5\ngini = 0.444\nsamples = 3\nvalue = [0, 0, 2, 1, 0, 0]", fillcolor="#9cf2c0"] ;
549 -> 553 ;
554 [label="gini = 0.0\nsamples = 2\nvalue = [0, 0, 2, 0, 0, 0]", fillcolor="#39e581"] ;
553 -> 554 ;
555 [label="gini = 0.0\nsamples = 1\nvalue = [0, 0, 0, 1, 0, 0]", fillcolor="#399de5"] ;
553 -> 555 ;
556 [label="Id <= 934.5\ngini = 0.625\nsamples = 20\nvalue = [0, 10, 5, 5, 0, 0]", fillcolor="#def6bd"] ;
508 -> 556 ;
557 [label="citric acid <= 0.204\ngini = 0.278\nsamples = 12\nvalue = [0, 10, 0, 2, 0, 0]", fillcolor="#b1ea61"] ;
556 -> 557 ;
558 [label="gini = 0.0\nsamples = 2\nvalue = [0, 0, 0, 2, 0, 0]", fillcolor="#399de5"] ;
557 -> 558 ;
559 [label="gini = 0.0\nsamples = 10\nvalue = [0, 10, 0, 0, 0, 0]", fillcolor="#9de539"] ;
557 -> 559 ;
560 [label="Id <= 1290.0\ngini = 0.469\nsamples = 8\nvalue = [0, 0, 5, 3, 0, 0]", fillcolor="#b0f5cd"] ;
556 -> 560 ;
561 [label="gini = 0.0\nsamples = 5\nvalue = [0, 0, 5, 0, 0, 0]", fillcolor="#39e581"] ;
560 -> 561 ;
562 [label="gini = 0.0\nsamples = 3\nvalue = [0, 0, 0, 3, 0, 0]", fillcolor="#399de5"] ;
560 -> 562 ;
563 [label="pH <= 3.356\ngini = 0.428\nsamples = 27\nvalue = [0, 20, 2, 2, 3, 0]", fillcolor="#baed73"] ;
507 -> 563 ;
564 [label="citric acid <= 0.605\ngini = 0.611\nsamples = 6\nvalue = [0, 0, 1, 2, 3, 0]", fillcolor="#e0cef8"] ;
563 -> 564 ;
565 [label="sulphates <= 0.85\ngini = 0.444\nsamples = 3\nvalue = [0, 0, 1, 2, 0, 0]", fillcolor="#9ccef2"] ;
564 -> 565 ;
566 [label="gini = 0.0\nsamples = 2\nvalue = [0, 0, 0, 2, 0, 0]", fillcolor="#399de5"] ;
565 -> 566 ;
567 [label="gini = 0.0\nsamples = 1\nvalue = [0, 0, 1, 0, 0, 0]", fillcolor="#39e581"] ;
565 -> 567 ;
568 [label="gini = 0.0\nsamples = 3\nvalue = [0, 0, 0, 0, 3, 0]", fillcolor="#8139e5"] ;
564 -> 568 ;
569 [label="density <= 0.999\ngini = 0.091\nsamples = 21\nvalue = [0, 20, 1, 0, 0, 0]", fillcolor="#a2e643"] ;
563 -> 569 ;
570 [label="gini = 0.0\nsamples = 20\nvalue = [0, 20, 0, 0, 0, 0]", fillcolor="#9de539"] ;
569 -> 570 ;
571 [label="gini = 0.0\nsamples = 1\nvalue = [0, 0, 1, 0, 0, 0]", fillcolor="#39e581"] ;
569 -> 571 ;
572 [label="pH <= 3.258\ngini = 0.614\nsamples = 677\nvalue = [0, 13, 9, 80, 237, 338]", fillcolor="#f9d2e9"] ;
368 -> 572 ;
573 [label="chlorides <= 0.086\ngini = 0.444\nsamples = 336\nvalue = [0, 0, 5, 20, 72, 239]", fillcolor="#ef82c1"] ;
572 -> 573 ;
574 [label="density <= 0.999\ngini = 0.366\nsamples = 308\nvalue = [0, 0, 2, 14, 53, 239]", fillcolor="#ec6fb8"] ;
573 -> 574 ;
575 [label="volatile acidity <= 0.271\ngini = 0.33\nsamples = 297\nvalue = [0, 0, 2, 14, 42, 239]", fillcolor="#eb66b3"] ;
574 -> 575 ;
576 [label="total sulfur dioxide <= 29.457\ngini = 0.498\nsamples = 15\nvalue = [0, 0, 0, 2, 10, 3]", fillcolor="#b68cf0"] ;
575 -> 576 ;
577 [label="residual sugar <= 1.804\ngini = 0.165\nsamples = 11\nvalue = [0, 0, 0, 1, 10, 0]", fillcolor="#8e4de8"] ;
576 -> 577 ;
578 [label="gini = 0.0\nsamples = 1\nvalue = [0, 0, 0, 1, 0, 0]", fillcolor="#399de5"] ;
577 -> 578 ;
579 [label="gini = 0.0\nsamples = 10\nvalue = [0, 0, 0, 0, 10, 0]", fillcolor="#8139e5"] ;
577 -> 579 ;
580 [label="Id <= 811.0\ngini = 0.375\nsamples = 4\nvalue = [0, 0, 0, 1, 0, 3]", fillcolor="#ee7bbe"] ;
576 -> 580 ;
581 [label="gini = 0.0\nsamples = 1\nvalue = [0, 0, 0, 1, 0, 0]", fillcolor="#399de5"] ;
580 -> 581 ;
582 [label="gini = 0.0\nsamples = 3\nvalue = [0, 0, 0, 0, 0, 3]", fillcolor="#e5399d"] ;
580 -> 582 ;
583 [label="total sulfur dioxide <= 11.5\ngini = 0.285\nsamples = 282\nvalue = [0, 0, 2, 12, 32, 236]", fillcolor="#ea5daf"] ;
575 -> 583 ;
584 [label="total sulfur dioxide <= 8.5\ngini = 0.219\nsamples = 8\nvalue = [0, 0, 0, 1, 7, 0]", fillcolor="#9355e9"] ;
583 -> 584 ;
585 [label="gini = 0.0\nsamples = 1\nvalue = [0, 0, 0, 1, 0, 0]", fillcolor="#399de5"] ;
584 -> 585 ;
586 [label="gini = 0.0\nsamples = 7\nvalue = [0, 0, 0, 0, 7, 0]", fillcolor="#8139e5"] ;
584 -> 586 ;
587 [label="citric acid <= 0.705\ngini = 0.248\nsamples = 274\nvalue = [0.0, 0.0, 2.0, 11.0, 25.0, 236.0]", fillcolor="#e957ac"] ;
583 -> 587 ;
588 [label="citric acid <= 0.285\ngini = 0.222\nsamples = 269\nvalue = [0, 0, 2, 9, 22, 236]", fillcolor="#e853aa"] ;
587 -> 588 ;
589 [label="density <= 0.995\ngini = 0.5\nsamples = 4\nvalue = [0, 0, 2, 2, 0, 0]", fillcolor="#ffffff"] ;
588 -> 589 ;
590 [label="gini = 0.0\nsamples = 2\nvalue = [0, 0, 2, 0, 0, 0]", fillcolor="#39e581"] ;
589 -> 590 ;
591 [label="gini = 0.0\nsamples = 2\nvalue = [0, 0, 0, 2, 0, 0]", fillcolor="#399de5"] ;
589 -> 591 ;
592 [label="sulphates <= 0.753\ngini = 0.199\nsamples = 265\nvalue = [0, 0, 0, 7, 22, 236]", fillcolor="#e851a9"] ;
588 -> 592 ;
593 [label="fixed acidity <= 7.221\ngini = 0.095\nsamples = 182\nvalue = [0, 0, 0, 4, 5, 173]", fillcolor="#e643a2"] ;
592 -> 593 ;
594 [label="gini = 0.0\nsamples = 2\nvalue = [0, 0, 0, 0, 2, 0]", fillcolor="#8139e5"] ;
593 -> 594 ;
595 [label="fixed acidity <= 11.945\ngini = 0.075\nsamples = 180\nvalue = [0, 0, 0, 4, 3, 173]", fillcolor="#e641a1"] ;
593 -> 595 ;
596 [label="density <= 0.999\ngini = 0.065\nsamples = 179\nvalue = [0, 0, 0, 4, 2, 173]", fillcolor="#e640a0"] ;
595 -> 596 ;
597 [label="citric acid <= 0.42\ngini = 0.055\nsamples = 178\nvalue = [0, 0, 0, 3, 2, 173]", fillcolor="#e63fa0"] ;
596 -> 597 ;
598 [label="density <= 0.995\ngini = 0.161\nsamples = 58\nvalue = [0, 0, 0, 3, 2, 53]", fillcolor="#e74ba6"] ;
597 -> 598 ;
599 [label="citric acid <= 0.419\ngini = 0.036\nsamples = 54\nvalue = [0, 0, 0, 0, 1, 53]", fillcolor="#e53d9f"] ;
598 -> 599 ;
600 [label="gini = 0.0\nsamples = 53\nvalue = [0, 0, 0, 0, 0, 53]", fillcolor="#e5399d"] ;
599 -> 600 ;
601 [label="gini = 0.0\nsamples = 1\nvalue = [0, 0, 0, 0, 1, 0]", fillcolor="#8139e5"] ;
599 -> 601 ;
602 [label="volatile acidity <= 0.391\ngini = 0.375\nsamples = 4\nvalue = [0, 0, 0, 3, 1, 0]", fillcolor="#7bbeee"] ;
598 -> 602 ;
603 [label="gini = 0.0\nsamples = 1\nvalue = [0, 0, 0, 0, 1, 0]", fillcolor="#8139e5"] ;
602 -> 603 ;
604 [label="gini = 0.0\nsamples = 3\nvalue = [0, 0, 0, 3, 0, 0]", fillcolor="#399de5"] ;
602 -> 604 ;
605 [label="gini = 0.0\nsamples = 120\nvalue = [0, 0, 0, 0, 0, 120]", fillcolor="#e5399d"] ;
597 -> 605 ;
606 [label="gini = 0.0\nsamples = 1\nvalue = [0, 0, 0, 1, 0, 0]", fillcolor="#399de5"] ;
596 -> 606 ;
607 [label="gini = 0.0\nsamples = 1\nvalue = [0, 0, 0, 0, 1, 0]", fillcolor="#8139e5"] ;
595 -> 607 ;
608 [label="total sulfur dioxide <= 18.964\ngini = 0.381\nsamples = 83\nvalue = [0, 0, 0, 3, 17, 63]", fillcolor="#ed75bb"] ;
592 -> 608 ;
609 [label="pH <= 3.242\ngini = 0.092\nsamples = 42\nvalue = [0, 0, 0, 1, 1, 40]", fillcolor="#e643a2"] ;
608 -> 609 ;
610 [label="volatile acidity <= 0.51\ngini = 0.048\nsamples = 41\nvalue = [0, 0, 0, 1, 0, 40]", fillcolor="#e63e9f"] ;
609 -> 610 ;
611 [label="gini = 0.0\nsamples = 40\nvalue = [0, 0, 0, 0, 0, 40]", fillcolor="#e5399d"] ;
610 -> 611 ;
612 [label="gini = 0.0\nsamples = 1\nvalue = [0, 0, 0, 1, 0, 0]", fillcolor="#399de5"] ;
610 -> 612 ;
613 [label="gini = 0.0\nsamples = 1\nvalue = [0, 0, 0, 0, 1, 0]", fillcolor="#8139e5"] ;
609 -> 613 ;
614 [label="alcohol <= 11.894\ngini = 0.531\nsamples = 41\nvalue = [0.0, 0.0, 0.0, 2.0, 16.0, 23.0]", fillcolor="#f8c8e4"] ;
608 -> 614 ;
615 [label="Id <= 1527.5\ngini = 0.429\nsamples = 31\nvalue = [0, 0, 0, 1, 8, 22]", fillcolor="#ef86c3"] ;
614 -> 615 ;
616 [label="chlorides <= 0.082\ngini = 0.349\nsamples = 28\nvalue = [0, 0, 0, 1, 5, 22]", fillcolor="#ec6db7"] ;
615 -> 616 ;
617 [label="total sulfur dioxide <= 19.022\ngini = 0.269\nsamples = 26\nvalue = [0, 0, 0, 1, 3, 22]", fillcolor="#ea5bae"] ;
616 -> 617 ;
618 [label="gini = 0.0\nsamples = 1\nvalue = [0, 0, 0, 1, 0, 0]", fillcolor="#399de5"] ;
617 -> 618 ;
619 [label="free sulfur dioxide <= 14.581\ngini = 0.211\nsamples = 25\nvalue = [0, 0, 0, 0, 3, 22]", fillcolor="#e954aa"] ;
617 -> 619 ;
620 [label="gini = 0.0\nsamples = 18\nvalue = [0, 0, 0, 0, 0, 18]", fillcolor="#e5399d"] ;
619 -> 620 ;
621 [label="sulphates <= 0.811\ngini = 0.49\nsamples = 7\nvalue = [0, 0, 0, 0, 3, 4]", fillcolor="#f8cee6"] ;
619 -> 621 ;
622 [label="gini = 0.0\nsamples = 4\nvalue = [0, 0, 0, 0, 0, 4]", fillcolor="#e5399d"] ;
621 -> 622 ;
623 [label="gini = 0.0\nsamples = 3\nvalue = [0, 0, 0, 0, 3, 0]", fillcolor="#8139e5"] ;
621 -> 623 ;
624 [label="gini = 0.0\nsamples = 2\nvalue = [0, 0, 0, 0, 2, 0]", fillcolor="#8139e5"] ;
616 -> 624 ;
625 [label="gini = 0.0\nsamples = 3\nvalue = [0, 0, 0, 0, 3, 0]", fillcolor="#8139e5"] ;
615 -> 625 ;
626 [label="pH <= 3.134\ngini = 0.34\nsamples = 10\nvalue = [0, 0, 0, 1, 8, 1]", fillcolor="#9d65eb"] ;
614 -> 626 ;
627 [label="gini = 0.0\nsamples = 1\nvalue = [0, 0, 0, 1, 0, 0]", fillcolor="#399de5"] ;
626 -> 627 ;
628 [label="Id <= 369.5\ngini = 0.198\nsamples = 9\nvalue = [0, 0, 0, 0, 8, 1]", fillcolor="#9152e8"] ;
626 -> 628 ;
629 [label="gini = 0.0\nsamples = 1\nvalue = [0, 0, 0, 0, 0, 1]", fillcolor="#e5399d"] ;
628 -> 629 ;
630 [label="gini = 0.0\nsamples = 8\nvalue = [0, 0, 0, 0, 8, 0]", fillcolor="#8139e5"] ;
628 -> 630 ;
631 [label="free sulfur dioxide <= 15.124\ngini = 0.48\nsamples = 5\nvalue = [0, 0, 0, 2, 3, 0]", fillcolor="#d5bdf6"] ;
587 -> 631 ;
632 [label="gini = 0.0\nsamples = 2\nvalue = [0, 0, 0, 2, 0, 0]", fillcolor="#399de5"] ;
631 -> 632 ;
633 [label="gini = 0.0\nsamples = 3\nvalue = [0, 0, 0, 0, 3, 0]", fillcolor="#8139e5"] ;
631 -> 633 ;
634 [label="gini = 0.0\nsamples = 11\nvalue = [0, 0, 0, 0, 11, 0]", fillcolor="#8139e5"] ;
574 -> 634 ;
635 [label="sulphates <= 0.894\ngini = 0.482\nsamples = 28\nvalue = [0, 0, 3, 6, 19, 0]", fillcolor="#b58af0"] ;
573 -> 635 ;
636 [label="free sulfur dioxide <= 12.525\ngini = 0.394\nsamples = 25\nvalue = [0, 0, 3, 3, 19, 0]", fillcolor="#a36fec"] ;
635 -> 636 ;
637 [label="pH <= 2.935\ngini = 0.18\nsamples = 20\nvalue = [0, 0, 2, 0, 18, 0]", fillcolor="#8f4fe8"] ;
636 -> 637 ;
638 [label="gini = 0.0\nsamples = 2\nvalue = [0, 0, 2, 0, 0, 0]", fillcolor="#39e581"] ;
637 -> 638 ;
639 [label="gini = 0.0\nsamples = 18\nvalue = [0, 0, 0, 0, 18, 0]", fillcolor="#8139e5"] ;
637 -> 639 ;
640 [label="free sulfur dioxide <= 21.0\ngini = 0.56\nsamples = 5\nvalue = [0, 0, 1, 3, 1, 0]", fillcolor="#9ccef2"] ;
636 -> 640 ;
641 [label="gini = 0.0\nsamples = 3\nvalue = [0, 0, 0, 3, 0, 0]", fillcolor="#399de5"] ;
640 -> 641 ;
642 [label="alcohol <= 12.065\ngini = 0.5\nsamples = 2\nvalue = [0, 0, 1, 0, 1, 0]", fillcolor="#ffffff"] ;
640 -> 642 ;
643 [label="gini = 0.0\nsamples = 1\nvalue = [0, 0, 0, 0, 1, 0]", fillcolor="#8139e5"] ;
642 -> 643 ;
644 [label="gini = 0.0\nsamples = 1\nvalue = [0, 0, 1, 0, 0, 0]", fillcolor="#39e581"] ;
642 -> 644 ;
645 [label="gini = 0.0\nsamples = 3\nvalue = [0, 0, 0, 3, 0, 0]", fillcolor="#399de5"] ;
635 -> 645 ;
646 [label="Id <= 610.5\ngini = 0.649\nsamples = 341\nvalue = [0, 13, 4, 60, 165, 99]", fillcolor="#ddc9f8"] ;
572 -> 646 ;
647 [label="alcohol <= 11.7\ngini = 0.528\nsamples = 107\nvalue = [0.0, 3.0, 1.0, 12.0, 22.0, 69.0]", fillcolor="#f192c9"] ;
646 -> 647 ;
648 [label="density <= 1.0\ngini = 0.56\nsamples = 19\nvalue = [0, 1, 1, 6, 11, 0]", fillcolor="#cfb3f5"] ;
647 -> 648 ;
649 [label="total sulfur dioxide <= 81.503\ngini = 0.436\nsamples = 15\nvalue = [0, 1, 1, 2, 11, 0]", fillcolor="#a876ed"] ;
648 -> 649 ;
650 [label="citric acid <= 0.635\ngini = 0.153\nsamples = 12\nvalue = [0, 0, 0, 1, 11, 0]", fillcolor="#8c4be7"] ;
649 -> 650 ;
651 [label="gini = 0.0\nsamples = 11\nvalue = [0, 0, 0, 0, 11, 0]", fillcolor="#8139e5"] ;
650 -> 651 ;
652 [label="gini = 0.0\nsamples = 1\nvalue = [0, 0, 0, 1, 0, 0]", fillcolor="#399de5"] ;
650 -> 652 ;
653 [label="chlorides <= 0.079\ngini = 0.667\nsamples = 3\nvalue = [0, 1, 1, 1, 0, 0]", fillcolor="#ffffff"] ;
649 -> 653 ;
654 [label="gini = 0.0\nsamples = 1\nvalue = [0, 1, 0, 0, 0, 0]", fillcolor="#9de539"] ;
653 -> 654 ;
655 [label="total sulfur dioxide <= 99.0\ngini = 0.5\nsamples = 2\nvalue = [0, 0, 1, 1, 0, 0]", fillcolor="#ffffff"] ;
653 -> 655 ;
656 [label="gini = 0.0\nsamples = 1\nvalue = [0, 0, 0, 1, 0, 0]", fillcolor="#399de5"] ;
655 -> 656 ;
657 [label="gini = 0.0\nsamples = 1\nvalue = [0, 0, 1, 0, 0, 0]", fillcolor="#39e581"] ;
655 -> 657 ;
658 [label="gini = 0.0\nsamples = 4\nvalue = [0, 0, 0, 4, 0, 0]", fillcolor="#399de5"] ;
648 -> 658 ;
659 [label="free sulfur dioxide <= 7.018\ngini = 0.364\nsamples = 88\nvalue = [0, 2, 0, 6, 11, 69]", fillcolor="#eb6ab5"] ;
647 -> 659 ;
660 [label="citric acid <= 0.328\ngini = 0.494\nsamples = 9\nvalue = [0, 0, 0, 5, 4, 0]", fillcolor="#d7ebfa"] ;
659 -> 660 ;
661 [label="gini = 0.0\nsamples = 4\nvalue = [0, 0, 0, 0, 4, 0]", fillcolor="#8139e5"] ;
660 -> 661 ;
662 [label="gini = 0.0\nsamples = 5\nvalue = [0, 0, 0, 5, 0, 0]", fillcolor="#399de5"] ;
660 -> 662 ;
663 [label="sulphates <= 0.862\ngini = 0.228\nsamples = 79\nvalue = [0, 2, 0, 1, 7, 69]", fillcolor="#e955ab"] ;
659 -> 663 ;
664 [label="Id <= 249.0\ngini = 0.153\nsamples = 74\nvalue = [0, 2, 0, 1, 3, 68]", fillcolor="#e74aa5"] ;
663 -> 664 ;
665 [label="density <= 0.994\ngini = 0.625\nsamples = 4\nvalue = [0, 2, 0, 1, 1, 0]", fillcolor="#def6bd"] ;
664 -> 665 ;
666 [label="alcohol <= 13.042\ngini = 0.5\nsamples = 2\nvalue = [0, 0, 0, 1, 1, 0]", fillcolor="#ffffff"] ;
665 -> 666 ;
667 [label="gini = 0.0\nsamples = 1\nvalue = [0, 0, 0, 0, 1, 0]", fillcolor="#8139e5"] ;
666 -> 667 ;
668 [label="gini = 0.0\nsamples = 1\nvalue = [0, 0, 0, 1, 0, 0]", fillcolor="#399de5"] ;
666 -> 668 ;
669 [label="gini = 0.0\nsamples = 2\nvalue = [0, 2, 0, 0, 0, 0]", fillcolor="#9de539"] ;
665 -> 669 ;
670 [label="citric acid <= 0.488\ngini = 0.056\nsamples = 70\nvalue = [0, 0, 0, 0, 2, 68]", fillcolor="#e63fa0"] ;
664 -> 670 ;
671 [label="gini = 0.0\nsamples = 64\nvalue = [0, 0, 0, 0, 0, 64]", fillcolor="#e5399d"] ;
670 -> 671 ;
672 [label="chlorides <= 0.069\ngini = 0.444\nsamples = 6\nvalue = [0, 0, 0, 0, 2, 4]", fillcolor="#f29cce"] ;
670 -> 672 ;
673 [label="gini = 0.0\nsamples = 2\nvalue = [0, 0, 0, 0, 2, 0]", fillcolor="#8139e5"] ;
672 -> 673 ;
674 [label="gini = 0.0\nsamples = 4\nvalue = [0, 0, 0, 0, 0, 4]", fillcolor="#e5399d"] ;
672 -> 674 ;
675 [label="chlorides <= 0.072\ngini = 0.32\nsamples = 5\nvalue = [0, 0, 0, 0, 4, 1]", fillcolor="#a06aec"] ;
663 -> 675 ;
676 [label="gini = 0.0\nsamples = 4\nvalue = [0, 0, 0, 0, 4, 0]", fillcolor="#8139e5"] ;
675 -> 676 ;
677 [label="gini = 0.0\nsamples = 1\nvalue = [0, 0, 0, 0, 0, 1]", fillcolor="#e5399d"] ;
675 -> 677 ;
678 [label="volatile acidity <= 0.38\ngini = 0.566\nsamples = 234\nvalue = [0.0, 10.0, 3.0, 48.0, 143.0, 30.0]", fillcolor="#bf9af2"] ;
646 -> 678 ;
679 [label="citric acid <= 0.518\ngini = 0.233\nsamples = 105\nvalue = [0, 0, 1, 13, 91, 0]", fillcolor="#9457e9"] ;
678 -> 679 ;
680 [label="residual sugar <= 1.65\ngini = 0.18\nsamples = 101\nvalue = [0, 0, 1, 9, 91, 0]", fillcolor="#8f4fe8"] ;
679 -> 680 ;
681 [label="gini = 0.0\nsamples = 2\nvalue = [0, 0, 0, 2, 0, 0]", fillcolor="#399de5"] ;
680 -> 681 ;
682 [label="citric acid <= 0.323\ngini = 0.15\nsamples = 99\nvalue = [0, 0, 1, 7, 91, 0]", fillcolor="#8c4ae7"] ;
680 -> 682 ;
683 [label="citric acid <= 0.307\ngini = 0.49\nsamples = 7\nvalue = [0, 0, 0, 3, 4, 0]", fillcolor="#e0cef8"] ;
682 -> 683 ;
684 [label="gini = 0.0\nsamples = 4\nvalue = [0, 0, 0, 0, 4, 0]", fillcolor="#8139e5"] ;
683 -> 684 ;
685 [label="gini = 0.0\nsamples = 3\nvalue = [0, 0, 0, 3, 0, 0]", fillcolor="#399de5"] ;
683 -> 685 ;
686 [label="free sulfur dioxide <= 3.447\ngini = 0.104\nsamples = 92\nvalue = [0, 0, 1, 4, 87, 0]", fillcolor="#8844e6"] ;
682 -> 686 ;
687 [label="gini = 0.0\nsamples = 1\nvalue = [0, 0, 0, 1, 0, 0]", fillcolor="#399de5"] ;
686 -> 687 ;
688 [label="Id <= 1220.5\ngini = 0.085\nsamples = 91\nvalue = [0, 0, 1, 3, 87, 0]", fillcolor="#8742e6"] ;
686 -> 688 ;
689 [label="density <= 0.994\ngini = 0.048\nsamples = 82\nvalue = [0, 0, 1, 1, 80, 0]", fillcolor="#843ee6"] ;
688 -> 689 ;
690 [label="sulphates <= 0.689\ngini = 0.444\nsamples = 3\nvalue = [0, 0, 0, 1, 2, 0]", fillcolor="#c09cf2"] ;
689 -> 690 ;
691 [label="gini = 0.0\nsamples = 1\nvalue = [0, 0, 0, 1, 0, 0]", fillcolor="#399de5"] ;
690 -> 691 ;
692 [label="gini = 0.0\nsamples = 2\nvalue = [0, 0, 0, 0, 2, 0]", fillcolor="#8139e5"] ;
690 -> 692 ;
693 [label="chlorides <= 0.056\ngini = 0.025\nsamples = 79\nvalue = [0, 0, 1, 0, 78, 0]", fillcolor="#833ce5"] ;
689 -> 693 ;
694 [label="Id <= 875.0\ngini = 0.32\nsamples = 5\nvalue = [0, 0, 1, 0, 4, 0]", fillcolor="#a06aec"] ;
693 -> 694 ;
695 [label="gini = 0.0\nsamples = 4\nvalue = [0, 0, 0, 0, 4, 0]", fillcolor="#8139e5"] ;
694 -> 695 ;
696 [label="gini = 0.0\nsamples = 1\nvalue = [0, 0, 1, 0, 0, 0]", fillcolor="#39e581"] ;
694 -> 696 ;
697 [label="gini = 0.0\nsamples = 74\nvalue = [0, 0, 0, 0, 74, 0]", fillcolor="#8139e5"] ;
693 -> 697 ;
698 [label="pH <= 3.36\ngini = 0.346\nsamples = 9\nvalue = [0, 0, 0, 2, 7, 0]", fillcolor="#a572ec"] ;
688 -> 698 ;
699 [label="gini = 0.0\nsamples = 7\nvalue = [0, 0, 0, 0, 7, 0]", fillcolor="#8139e5"] ;
698 -> 699 ;
700 [label="gini = 0.0\nsamples = 2\nvalue = [0, 0, 0, 2, 0, 0]", fillcolor="#399de5"] ;
698 -> 700 ;
701 [label="gini = 0.0\nsamples = 4\nvalue = [0, 0, 0, 4, 0, 0]", fillcolor="#399de5"] ;
679 -> 701 ;
702 [label="citric acid <= 0.327\ngini = 0.704\nsamples = 129\nvalue = [0, 10, 2, 35, 52, 30]", fillcolor="#e8dbfa"] ;
678 -> 702 ;
703 [label="chlorides <= 0.097\ngini = 0.601\nsamples = 82\nvalue = [0, 10, 2, 27, 43, 0]", fillcolor="#dac5f7"] ;
702 -> 703 ;
704 [label="volatile acidity <= 0.575\ngini = 0.49\nsamples = 69\nvalue = [0, 0, 2, 24, 43, 0]", fillcolor="#caabf4"] ;
703 -> 704 ;
705 [label="Id <= 1580.5\ngini = 0.379\nsamples = 53\nvalue = [0, 0, 1, 12, 40, 0]", fillcolor="#a978ed"] ;
704 -> 705 ;
706 [label="volatile acidity <= 0.382\ngini = 0.327\nsamples = 50\nvalue = [0, 0, 1, 9, 40, 0]", fillcolor="#a069eb"] ;
705 -> 706 ;
707 [label="gini = 0.0\nsamples = 2\nvalue = [0, 0, 0, 2, 0, 0]", fillcolor="#399de5"] ;
706 -> 707 ;
708 [label="alcohol <= 11.016\ngini = 0.284\nsamples = 48\nvalue = [0, 0, 1, 7, 40, 0]", fillcolor="#9a60ea"] ;
706 -> 708 ;
709 [label="gini = 0.0\nsamples = 1\nvalue = [0, 0, 1, 0, 0, 0]", fillcolor="#39e581"] ;
708 -> 709 ;
710 [label="free sulfur dioxide <= 38.342\ngini = 0.254\nsamples = 47\nvalue = [0, 0, 0, 7, 40, 0]", fillcolor="#975cea"] ;
708 -> 710 ;
711 [label="sulphates <= 0.692\ngini = 0.201\nsamples = 44\nvalue = [0, 0, 0, 5, 39, 0]", fillcolor="#9152e8"] ;
710 -> 711 ;
712 [label="chlorides <= 0.063\ngini = 0.463\nsamples = 11\nvalue = [0, 0, 0, 4, 7, 0]", fillcolor="#c9aaf4"] ;
711 -> 712 ;
713 [label="fixed acidity <= 7.138\ngini = 0.32\nsamples = 5\nvalue = [0, 0, 0, 4, 1, 0]", fillcolor="#6ab6ec"] ;
712 -> 713 ;
714 [label="gini = 0.0\nsamples = 4\nvalue = [0, 0, 0, 4, 0, 0]", fillcolor="#399de5"] ;
713 -> 714 ;
715 [label="gini = 0.0\nsamples = 1\nvalue = [0, 0, 0, 0, 1, 0]", fillcolor="#8139e5"] ;
713 -> 715 ;
716 [label="gini = 0.0\nsamples = 6\nvalue = [0, 0, 0, 0, 6, 0]", fillcolor="#8139e5"] ;
712 -> 716 ;
717 [label="fixed acidity <= 8.389\ngini = 0.059\nsamples = 33\nvalue = [0, 0, 0, 1, 32, 0]", fillcolor="#853fe6"] ;
711 -> 717 ;
718 [label="gini = 0.0\nsamples = 32\nvalue = [0, 0, 0, 0, 32, 0]", fillcolor="#8139e5"] ;
717 -> 718 ;
719 [label="gini = 0.0\nsamples = 1\nvalue = [0, 0, 0, 1, 0, 0]", fillcolor="#399de5"] ;
717 -> 719 ;
720 [label="Id <= 961.0\ngini = 0.444\nsamples = 3\nvalue = [0, 0, 0, 2, 1, 0]", fillcolor="#9ccef2"] ;
710 -> 720 ;
721 [label="gini = 0.0\nsamples = 1\nvalue = [0, 0, 0, 0, 1, 0]", fillcolor="#8139e5"] ;
720 -> 721 ;
722 [label="gini = 0.0\nsamples = 2\nvalue = [0, 0, 0, 2, 0, 0]", fillcolor="#399de5"] ;
720 -> 722 ;
723 [label="gini = 0.0\nsamples = 3\nvalue = [0, 0, 0, 3, 0, 0]", fillcolor="#399de5"] ;
705 -> 723 ;
724 [label="chlorides <= 0.062\ngini = 0.398\nsamples = 16\nvalue = [0, 0, 1, 12, 3, 0]", fillcolor="#76bbed"] ;
704 -> 724 ;
725 [label="residual sugar <= 2.05\ngini = 0.625\nsamples = 4\nvalue = [0, 0, 1, 1, 2, 0]", fillcolor="#d5bdf6"] ;
724 -> 725 ;
726 [label="gini = 0.0\nsamples = 2\nvalue = [0, 0, 0, 0, 2, 0]", fillcolor="#8139e5"] ;
725 -> 726 ;
727 [label="chlorides <= 0.043\ngini = 0.5\nsamples = 2\nvalue = [0, 0, 1, 1, 0, 0]", fillcolor="#ffffff"] ;
725 -> 727 ;
728 [label="gini = 0.0\nsamples = 1\nvalue = [0, 0, 1, 0, 0, 0]", fillcolor="#39e581"] ;
727 -> 728 ;
729 [label="gini = 0.0\nsamples = 1\nvalue = [0, 0, 0, 1, 0, 0]", fillcolor="#399de5"] ;
727 -> 729 ;
730 [label="density <= 0.997\ngini = 0.153\nsamples = 12\nvalue = [0, 0, 0, 11, 1, 0]", fillcolor="#4ba6e7"] ;
724 -> 730 ;
731 [label="gini = 0.0\nsamples = 10\nvalue = [0, 0, 0, 10, 0, 0]", fillcolor="#399de5"] ;
730 -> 731 ;
732 [label="citric acid <= 0.114\ngini = 0.5\nsamples = 2\nvalue = [0, 0, 0, 1, 1, 0]", fillcolor="#ffffff"] ;
730 -> 732 ;
733 [label="gini = 0.0\nsamples = 1\nvalue = [0, 0, 0, 1, 0, 0]", fillcolor="#399de5"] ;
732 -> 733 ;
734 [label="gini = 0.0\nsamples = 1\nvalue = [0, 0, 0, 0, 1, 0]", fillcolor="#8139e5"] ;
732 -> 734 ;
735 [label="density <= 0.996\ngini = 0.355\nsamples = 13\nvalue = [0, 10, 0, 3, 0, 0]", fillcolor="#baed74"] ;
703 -> 735 ;
736 [label="citric acid <= 0.224\ngini = 0.375\nsamples = 4\nvalue = [0, 1, 0, 3, 0, 0]", fillcolor="#7bbeee"] ;
735 -> 736 ;
737 [label="gini = 0.0\nsamples = 3\nvalue = [0, 0, 0, 3, 0, 0]", fillcolor="#399de5"] ;
736 -> 737 ;
738 [label="gini = 0.0\nsamples = 1\nvalue = [0, 1, 0, 0, 0, 0]", fillcolor="#9de539"] ;
736 -> 738 ;
739 [label="gini = 0.0\nsamples = 9\nvalue = [0, 9, 0, 0, 0, 0]", fillcolor="#9de539"] ;
735 -> 739 ;
740 [label="Id <= 1116.5\ngini = 0.527\nsamples = 47\nvalue = [0, 0, 0, 8, 9, 30]", fillcolor="#f192c9"] ;
702 -> 740 ;
741 [label="Id <= 1061.0\ngini = 0.444\nsamples = 12\nvalue = [0, 0, 0, 4, 8, 0]", fillcolor="#c09cf2"] ;
740 -> 741 ;
742 [label="gini = 0.0\nsamples = 7\nvalue = [0, 0, 0, 0, 7, 0]", fillcolor="#8139e5"] ;
741 -> 742 ;
743 [label="residual sugar <= 1.837\ngini = 0.32\nsamples = 5\nvalue = [0, 0, 0, 4, 1, 0]", fillcolor="#6ab6ec"] ;
741 -> 743 ;
744 [label="gini = 0.0\nsamples = 1\nvalue = [0, 0, 0, 0, 1, 0]", fillcolor="#8139e5"] ;
743 -> 744 ;
745 [label="gini = 0.0\nsamples = 4\nvalue = [0, 0, 0, 4, 0, 0]", fillcolor="#399de5"] ;
743 -> 745 ;
746 [label="chlorides <= 0.073\ngini = 0.251\nsamples = 35\nvalue = [0, 0, 0, 4, 1, 30]", fillcolor="#e959ad"] ;
740 -> 746 ;
747 [label="fixed acidity <= 7.562\ngini = 0.119\nsamples = 32\nvalue = [0, 0, 0, 1, 1, 30]", fillcolor="#e746a3"] ;
746 -> 747 ;
748 [label="Id <= 1391.5\ngini = 0.5\nsamples = 2\nvalue = [0, 0, 0, 1, 1, 0]", fillcolor="#ffffff"] ;
747 -> 748 ;
749 [label="gini = 0.0\nsamples = 1\nvalue = [0, 0, 0, 0, 1, 0]", fillcolor="#8139e5"] ;
748 -> 749 ;
750 [label="gini = 0.0\nsamples = 1\nvalue = [0, 0, 0, 1, 0, 0]", fillcolor="#399de5"] ;
748 -> 750 ;
751 [label="gini = 0.0\nsamples = 30\nvalue = [0, 0, 0, 0, 0, 30]", fillcolor="#e5399d"] ;
747 -> 751 ;
752 [label="gini = 0.0\nsamples = 3\nvalue = [0, 0, 0, 3, 0, 0]", fillcolor="#399de5"] ;
746 -> 752 ;
}